{"learner":{"attributes":{"scikit_learn":"{\"_estimator_type\": \"regressor\"}"},"feature_names":["temperature_2m","apparent_temperature","rain","snowfall","wind_speed_10m","daylight_duration","rain_sum","month","weekday","hour"],"feature_types":["float","float","float","float","float","float","float","int","int","int"],"gradient_booster":{"model":{"gbtree_model_param":{"num_parallel_tree":"1","num_trees":"100"},"iteration_indptr":[0,1,2,3,4,5,6,7,8,9,10,11,12,13,14,15,16,17,18,19,20,21,22,23,24,25,26,27,28,29,30,31,32,33,34,35,36,37,38,39,40,41,42,43,44,45,46,47,48,49,50,51,52,53,54,55,56,57,58,59,60,61,62,63,64,65,66,67,68,69,70,71,72,73,74,75,76,77,78,79,80,81,82,83,84,85,86,87,88,89,90,91,92,93,94,95,96,97,98,99,100],"tree_info":[0,0,0,0,0,0,0,0,0,0,0,0,0,0,0,0,0,0,0,0,0,0,0,0,0,0,0,0,0,0,0,0,0,0,0,0,0,0,0,0,0,0,0,0,0,0,0,0,0,0,0,0,0,0,0,0,0,0,0,0,0,0,0,0,0,0,0,0,0,0,0,0,0,0,0,0,0,0,0,0,0,0,0,0,0,0,0,0,0,0,0,0,0,0,0,0,0,0,0,0],"trees":[{"base_weights":[-4.073848E-7,6.777847E0,-3.4270484E0,2.2876298E0,8.585887E0,-9.681755E0,4.801645E0,2.6729915E0,-1.5771356E1,8.702631E0,-5.4294434E0,-1.9000525E1,2.7696807E0,-1.8801243E0,5.921853E0,4.717331E0,3.8514334E-1,-2.1994703E0,-5.777428E0,9.561776E0,5.2633033E0,-5.4227567E0,-2.0774822E1,5.178472E0,9.241904E-1,-5.0368657E0,3.7330093E0,7.2825176E-1,6.7158213E0,9.22936E0,3.718944E0,-4.125555E0,3.7305293E0,6.228311E0,1.0203309E1,6.1233044E0,1.674633E-1,3.640298E0,-1.3682439E1,-1.2837485E1,-2.2050983E1,5.320244E0,-4.289523E0,-2.656186E0,2.6846755E0,-1.0305864E1,2.1972747E0,-6.634437E0,4.836098E0,1.8909985E0,-8.9595E0,8.071589E0,3.3579648E0,2.911102E0,-1.6452312E-1,3.124696E-1,1.3785279E0,-2.980808E0,-4.9317053E-1,-5.454996E-1,1.685702E0,2.0770714E0,-2.4539676E0,3.0893333E0,1.5731094E0,2.1832943E0,6.580553E-1,2.49751E0,-7.463801E-1,-1.8325564E-1,1.743676E0,6.81604E-1,-5.2793727E0,-4.8617315E0,-1.9895141E0,-6.6907287E0,-2.2412114E0,1.0545607E0,1.8543912E0,6.749548E-1,-1.4198778E0,8.867059E-1,-5.3994703E0,-4.090955E0,-2.0383227E0,2.19751E0,3.6823252E-1,1.720424E0,-3.0061016E0,-1.7494702E0,1.6376818E0,2.291672E0,1.9806246E-1,-4.011904E0,-5.176038E-1,9.903577E-1,2.7654352E0,1.0662024E0,-4.4754915E0],"categories":[],"categories_nodes":[],"categories_segments":[],"categories_sizes":[],"default_left":[0,0,0,0,0,0,0,0,0,0,0,0,0,0,0,0,0,0,0,0,0,0,0,0,0,0,0,0,0,0,0,0,0,0,0,0,0,0,0,0,0,0,0,0,0,0,0,0,0,0,0,0,0,0,0,0,0,0,0,0,0,0,0,0,0,0,0,0,0,0,0,0,0,0,0,0,0,0,0,0,0,0,0,0,0,0,0,0,0,0,0,0,0,0,0,0,0,0,0],"id":0,"left_children":[1,3,5,7,9,11,13,15,17,19,-1,21,23,25,27,29,31,-1,-1,33,35,37,39,41,43,45,47,49,51,53,55,57,59,61,63,65,67,69,71,73,75,77,-1,79,81,83,85,87,89,91,93,95,97,-1,-1,-1,-1,-1,-1,-1,-1,-1,-1,-1,-1,-1,-1,-1,-1,-1,-1,-1,-1,-1,-1,-1,-1,-1,-1,-1,-1,-1,-1,-1,-1,-1,-1,-1,-1,-1,-1,-1,-1,-1,-1,-1,-1,-1,-1],"loss_changes":[1.7098138E5,2.0049266E4,2.5167381E5,4.9901787E3,5.6465E3,3.223897E5,1.5819395E4,3.2581484E3,3.0021802E2,5.1355E3,0E0,3.8168E4,5.28524E3,5.4054434E3,7.454621E3,1.6234253E3,4.9951E3,0E0,0E0,2.936789E3,1.5459717E3,1.3898529E4,1.3948625E4,1.5008906E3,4.2617905E3,7.4553965E3,1.2900686E3,2.7316636E3,7.1157266E3,3.1141162E2,7.0598584E2,2.0168257E3,2.0012073E3,2.350628E3,4.9653125E2,1.3540049E3,1.1471146E3,8.253148E2,6.09949E3,4.0103809E3,4.2656875E3,7.7560156E2,0E0,2.2826968E3,2.5923933E3,1.2289316E3,4.0377368E2,5.181532E2,6.9626E2,1.5230417E3,8.070559E2,6.078875E3,1.6760898E3,0E0,0E0,0E0,0E0,0E0,0E0,0E0,0E0,0E0,0E0,0E0,0E0,0E0,0E0,0E0,0E0,0E0,0E0,0E0,0E0,0E0,0E0,0E0,0E0,0E0,0E0,0E0,0E0,0E0,0E0,0E0,0E0,0E0,0E0,0E0,0E0,0E0,0E0,0E0,0E0,0E0,0E0,0E0,0E0,0E0,0E0],"parents":[2147483647,0,0,1,1,2,2,3,3,4,4,5,5,6,6,7,7,8,8,9,9,11,11,12,12,13,13,14,14,15,15,16,16,19,19,20,20,21,21,22,22,23,23,24,24,25,25,26,26,27,27,28,28,29,29,30,30,31,31,32,32,33,33,34,34,35,35,36,36,37,37,38,38,39,39,40,40,41,41,43,43,44,44,45,45,46,46,47,47,48,48,49,49,50,50,51,51,52,52],"right_children":[2,4,6,8,10,12,14,16,18,20,-1,22,24,26,28,30,32,-1,-1,34,36,38,40,42,44,46,48,50,52,54,56,58,60,62,64,66,68,70,72,74,76,78,-1,80,82,84,86,88,90,92,94,96,98,-1,-1,-1,-1,-1,-1,-1,-1,-1,-1,-1,-1,-1,-1,-1,-1,-1,-1,-1,-1,-1,-1,-1,-1,-1,-1,-1,-1,-1,-1,-1,-1,-1,-1,-1,-1,-1,-1,-1,-1,-1,-1,-1,-1,-1,-1],"split_conditions":[8E0,2E0,1.7E1,5.3584137E4,3.4099995E1,4E0,1.8E1,9.0000004E-1,5.38142E4,6E0,-5.4294434E0,9E0,1.2E1,1.24895E1,2.7530275E4,-7.695613E-1,8.9895E0,-2.1994703E0,-5.777428E0,2.780524E4,2.5862436E1,3.541139E4,2.7665553E4,3.4099995E1,5E0,4E0,3.5175562E4,9.2E0,5E0,3.4939934E4,2.935313E4,1.8000002E0,3.5175562E4,1.3E1,5.3584137E4,3.8999994E0,3E-1,2.780524E4,4E0,2.1218632E1,1.83E1,5E0,-4.289523E0,2.9693727E4,1.5800001E1,9.0395E0,8.311245E0,2.8699107E4,4E0,1.0799999E1,1E-1,1E0,1.5800001E1,2.911102E0,-1.6452312E-1,3.124696E-1,1.3785279E0,-2.980808E0,-4.9317053E-1,-5.454996E-1,1.685702E0,2.0770714E0,-2.4539676E0,3.0893333E0,1.5731094E0,2.1832943E0,6.580553E-1,2.49751E0,-7.463801E-1,-1.8325564E-1,1.743676E0,6.81604E-1,-5.2793727E0,-4.8617315E0,-1.9895141E0,-6.6907287E0,-2.2412114E0,1.0545607E0,1.8543912E0,6.749548E-1,-1.4198778E0,8.867059E-1,-5.3994703E0,-4.090955E0,-2.0383227E0,2.19751E0,3.6823252E-1,1.720424E0,-3.0061016E0,-1.7494702E0,1.6376818E0,2.291672E0,1.9806246E-1,-4.011904E0,-5.176038E-1,9.903577E-1,2.7654352E0,1.0662024E0,-4.4754915E0],"split_indices":[9,8,9,5,6,8,9,6,5,8,0,9,9,0,5,1,0,0,0,5,4,5,5,6,8,8,5,6,8,5,5,6,5,6,5,6,6,5,7,4,6,8,0,5,6,0,4,5,7,4,2,8,6,0,0,0,0,0,0,0,0,0,0,0,0,0,0,0,0,0,0,0,0,0,0,0,0,0,0,0,0,0,0,0,0,0,0,0,0,0,0,0,0,0,0,0,0,0,0],"split_type":[0,0,0,0,0,0,0,0,0,0,0,0,0,0,0,0,0,0,0,0,0,0,0,0,0,0,0,0,0,0,0,0,0,0,0,0,0,0,0,0,0,0,0,0,0,0,0,0,0,0,0,0,0,0,0,0,0,0,0,0,0,0,0,0,0,0,0,0,0,0,0,0,0,0,0,0,0,0,0,0,0,0,0,0,0,0,0,0,0,0,0,0,0,0,0,0,0,0,0],"sum_hessian":[7.359E3,2.471E3,4.888E3,7.1E2,1.761E3,2.777E3,2.111E3,6.96E2,1.4E1,1.754E3,7E0,1.588E3,1.189E3,3.03E2,1.808E3,3.67E2,3.29E2,5E0,9E0,1.402E3,3.52E2,1.84E2,1.404E3,5.15E2,6.74E2,1.94E2,1.09E2,2.4E2,1.568E3,6.5E1,3.02E2,1.4E2,1.89E2,2.28E2,1.174E3,3.01E2,5.1E1,8.8E1,9.6E1,1.96E2,1.208E3,5.12E2,3E0,2.22E2,4.52E2,1.12E2,8.2E1,1E1,9.9E1,2.15E2,2.5E1,1.116E3,4.52E2,6.2E1,3E0,7.5E1,2.27E2,4.1E1,9.9E1,4.8E1,1.41E2,2.18E2,1E1,1.151E3,2.3E1,2.32E2,6.9E1,1.2E1,3.9E1,3E1,5.8E1,1.9E1,7.7E1,1.26E2,7E1,1.187E3,2.1E1,1.67E2,3.45E2,6.6E1,1.56E2,4.47E2,5E0,5.6E1,5.6E1,1.2E1,7E1,2E0,8E0,5E0,9.4E1,3.7E1,1.78E2,1.5E1,1E1,2.17E2,8.99E2,4.48E2,4E0],"tree_param":{"num_deleted":"0","num_feature":"10","num_nodes":"99","size_leaf_vector":"1"}},{"base_weights":[-4.692598E-3,4.743512E0,-2.405502E0,1.5930803E0,6.0120783E0,-6.786392E0,3.358001E0,1.8741122E0,-1.1571742E1,6.096901E0,-4.004215E0,-1.3312211E1,1.9331982E0,-1.3324064E0,4.1443615E0,2.254624E0,-5.8505673E0,-1.6496025E0,-4.2175226E0,6.696298E0,3.6973221E0,-3.8123474E0,-1.4553608E1,3.3214617E0,2.1572997E-1,-4.7960467E0,1.3180729E0,4.740589E0,6.371184E-1,-1.6758598E0,2.9945822E0,-6.8374867E0,-4.1291317E-1,4.358171E0,7.146285E0,3.8675094E0,-8.921201E0,2.5248058E0,-9.7137165E0,-9.021017E0,-1.5443076E1,3.426369E0,-3.3194087E0,-2.225464E0,1.435721E0,-1.070672E1,-1.8671062E-2,-1.6390024E0,2.4341168E0,1.2038293E0,5.4481044E0,4.9052477E0,-9.28213E-1,-3.450982E0,-8.967637E-2,1.7337811E0,5.141412E-1,-6.5372795E-1,1.1500134E0,1.456795E0,-1.7847035E0,2.2407656E0,1.851253E0,1.2957634E0,-5.3929824E-2,-4.1215878E0,1.552275E0,-6.873332E-2,1.5851443E0,4.360087E-2,-3.9561784E0,-1.868576E-1,-3.2684994E0,-4.778253E0,-3.2088397E0,5.5661863E-1,1.2527009E0,-1.0359857E0,1.7390826E0,5.507332E-1,-2.5404625E0,-3.4383466E0,-7.997818E-2,-2.3347924E0,6.261386E-1,-2.142644E0,1.8272513E-1,-1.674785E-1,9.3232137E-1,5.193697E-1,-6.39706E0,1.958E0,1.1449625E0,8.290964E-1,2.1862733E0,-2.4845288E0,-3.872698E-2],"categories":[],"categories_nodes":[],"categories_segments":[],"categories_sizes":[],"default_left":[0,0,0,0,0,0,0,0,0,0,0,0,0,0,0,0,0,0,0,0,0,0,0,0,0,0,0,0,0,0,0,0,0,0,0,0,0,0,0,0,0,0,0,0,0,0,0,0,0,0,0,0,0,0,0,0,0,0,0,0,0,0,0,0,0,0,0,0,0,0,0,0,0,0,0,0,0,0,0,0,0,0,0,0,0,0,0,0,0,0,0,0,0,0,0,0,0],"id":1,"left_children":[1,3,5,7,9,11,13,15,17,19,-1,21,23,25,27,29,31,-1,-1,33,35,37,39,41,43,45,47,49,51,53,55,-1,57,59,61,63,65,67,69,71,73,75,-1,77,79,81,83,85,87,89,91,93,95,-1,-1,-1,-1,-1,-1,-1,-1,-1,-1,-1,-1,-1,-1,-1,-1,-1,-1,-1,-1,-1,-1,-1,-1,-1,-1,-1,-1,-1,-1,-1,-1,-1,-1,-1,-1,-1,-1,-1,-1,-1,-1,-1,-1],"loss_changes":[8.391198E4,9.869848E3,1.234665E5,2.6521982E3,2.974793E3,1.5810081E5,7.7953164E3,2.061905E3,1.4922266E2,2.499461E3,0E0,1.8683719E4,2.836599E3,2.7971348E3,3.7798105E3,1.9391008E3,3.0305356E3,0E0,0E0,1.4449883E3,7.9257324E2,6.9431333E3,6.7748125E3,1.0309727E3,1.5905944E3,3.7271511E3,5.749286E2,3.8620156E3,1.7683468E3,1.4309264E3,1.9873735E3,0E0,2.0334586E2,1.2038965E3,3.2403516E2,6.3880566E2,4.1060596E2,6.850377E2,3.2895186E3,3.0935957E3,2.6098438E3,7.620962E2,0E0,1.7733328E3,1.4260635E3,4.6165186E2,1.2260966E3,5.981842E2,2.557168E2,3.1140942E3,2.2416367E3,3.4210034E2,1.1389508E3,0E0,0E0,0E0,0E0,0E0,0E0,0E0,0E0,0E0,0E0,0E0,0E0,0E0,0E0,0E0,0E0,0E0,0E0,0E0,0E0,0E0,0E0,0E0,0E0,0E0,0E0,0E0,0E0,0E0,0E0,0E0,0E0,0E0,0E0,0E0,0E0,0E0,0E0,0E0,0E0,0E0,0E0,0E0,0E0],"parents":[2147483647,0,0,1,1,2,2,3,3,4,4,5,5,6,6,7,7,8,8,9,9,11,11,12,12,13,13,14,14,15,15,16,16,19,19,20,20,21,21,22,22,23,23,24,24,25,25,26,26,27,27,28,28,29,29,30,30,32,32,33,33,34,34,35,35,36,36,37,37,38,38,39,39,40,40,41,41,43,43,44,44,45,45,46,46,47,47,48,48,49,49,50,50,51,51,52,52],"right_children":[2,4,6,8,10,12,14,16,18,20,-1,22,24,26,28,30,32,-1,-1,34,36,38,40,42,44,46,48,50,52,54,56,-1,58,60,62,64,66,68,70,72,74,76,-1,78,80,82,84,86,88,90,92,94,96,-1,-1,-1,-1,-1,-1,-1,-1,-1,-1,-1,-1,-1,-1,-1,-1,-1,-1,-1,-1,-1,-1,-1,-1,-1,-1,-1,-1,-1,-1,-1,-1,-1,-1,-1,-1,-1,-1,-1,-1,-1,-1,-1,-1],"split_conditions":[8E0,2E0,1.7E1,5.3584137E4,3.4099995E1,4E0,1.8E1,1.42E1,5.38142E4,6E0,-4.004215E0,9E0,1.3E1,3E0,6E0,2.7530275E4,1.4599998E1,-1.6496025E0,-4.2175226E0,2.780524E4,3.366E1,3.5676152E4,2.7665553E4,3.4099995E1,5E0,1.08395E1,8.3895E0,1E0,3E-1,2E0,3.353255E4,-6.8374867E0,3.6405836E4,1.3E1,5E0,2.0000002E-1,2.9521334E4,2E0,8E0,2E0,9.500001E0,5E0,-3.3194087E0,5.1000004E0,1.3800001E1,1.42E1,3.541139E4,4E0,8E0,5.38142E4,4E0,1E-1,5.9999996E-1,-3.450982E0,-8.967637E-2,1.7337811E0,5.141412E-1,-6.5372795E-1,1.1500134E0,1.456795E0,-1.7847035E0,2.2407656E0,1.851253E0,1.2957634E0,-5.3929824E-2,-4.1215878E0,1.552275E0,-6.873332E-2,1.5851443E0,4.360087E-2,-3.9561784E0,-1.868576E-1,-3.2684994E0,-4.778253E0,-3.2088397E0,5.5661863E-1,1.2527009E0,-1.0359857E0,1.7390826E0,5.507332E-1,-2.5404625E0,-3.4383466E0,-7.997818E-2,-2.3347924E0,6.261386E-1,-2.142644E0,1.8272513E-1,-1.674785E-1,9.3232137E-1,5.193697E-1,-6.39706E0,1.958E0,1.1449625E0,8.290964E-1,2.1862733E0,-2.4845288E0,-3.872698E-2],"split_indices":[9,8,9,5,6,8,9,6,5,8,0,9,9,8,8,5,6,0,0,5,4,5,5,6,8,0,0,8,6,7,5,0,5,6,8,2,5,8,7,7,6,8,0,6,6,6,5,8,7,5,8,6,6,0,0,0,0,0,0,0,0,0,0,0,0,0,0,0,0,0,0,0,0,0,0,0,0,0,0,0,0,0,0,0,0,0,0,0,0,0,0,0,0,0,0,0,0],"split_type":[0,0,0,0,0,0,0,0,0,0,0,0,0,0,0,0,0,0,0,0,0,0,0,0,0,0,0,0,0,0,0,0,0,0,0,0,0,0,0,0,0,0,0,0,0,0,0,0,0,0,0,0,0,0,0,0,0,0,0,0,0,0,0,0,0,0,0,0,0,0,0,0,0,0,0,0,0,0,0,0,0,0,0,0,0,0,0,0,0,0,0,0,0,0,0,0,0],"sum_hessian":[7.359E3,2.471E3,4.888E3,7.1E2,1.761E3,2.777E3,2.111E3,6.96E2,1.4E1,1.754E3,7E0,1.588E3,1.189E3,3.03E2,1.808E3,6.64E2,3.2E1,5E0,9E0,1.402E3,3.52E2,1.84E2,1.404E3,6.57E2,5.32E2,1.31E2,1.72E2,1.545E3,2.63E2,1.05E2,5.59E2,7E0,2.5E1,2.28E2,1.174E3,3.48E2,4E0,8.9E1,9.5E1,1.96E2,1.208E3,6.53E2,4E0,1.77E2,3.55E2,5.8E1,7.3E1,4.7E1,1.25E2,2.58E2,1.287E3,7E1,1.93E2,1.2E1,9.3E1,1.75E2,3.84E2,1.8E1,7E0,2.18E2,1E1,8.77E2,2.97E2,3.13E2,3.5E1,3E0,1E0,4.5E1,4.4E1,2.5E1,7E1,3.6E1,1.6E2,1.094E3,1.14E2,2.12E2,4.41E2,1.54E2,2.3E1,3.42E2,1.3E1,5.4E1,4E0,1.5E1,5.8E1,1.3E1,3.4E1,2.3E1,1.02E2,2.53E2,5E0,7.73E2,5.14E2,3.8E1,3.2E1,1.8E1,1.75E2],"tree_param":{"num_deleted":"0","num_feature":"10","num_nodes":"97","size_leaf_vector":"1"}},{"base_weights":[-8.774922E-3,3.314363E0,-1.6890343E0,1.0961673E0,4.2075653E0,-4.7564626E0,2.3464792E0,1.3527863E0,-6.638905E0,4.2692194E0,-2.9531085E0,-9.327256E0,1.3508887E0,-5.011516E-2,3.2755468E0,8.6217445E-1,5.0767922E0,-1.0728952E0,-3.0787916E0,4.690092E0,2.5843651E0,-4.761037E0,-1.0656128E1,3.1085634E0,5.031636E-1,-1.4417734E0,2.636998E0,3.355563E-3,3.76489E0,1.0687312E0,-4.4444437E0,2.3707607E0,7.46866E0,3.203825E0,5.057813E0,3.147263E0,-7.344715E-1,4.4749252E-2,-8.520239E0,-4.261426E0,-1.1121131E1,3.7900667E0,-1.1642274E0,-1.3891348E0,1.4466138E0,-4.8521347E0,-1.1847136E-1,3.0382226E0,-6.304623E0,8.709324E-1,-7.016282E0,3.9408476E0,-3.701375E0,4.1966322E-1,-1.8935335E0,1.3695498E-1,1.24994E0,2.4352126E0,3.1340724E-1,1.0492991E0,-1.2979659E0,1.5399581E0,5.77975E-1,1.0836276E0,-2.2537553E-1,-6.257727E-1,2.4753983E0,-7.9260117E-1,8.606133E-1,-4.4685435E-1,-3.322632E0,-2.1753387E0,2.180926E0,-3.5262358E0,-2.1695023E0,1.1771839E0,-1.7411934E0,6.8721645E-2,-3.7046409E0,-2.2210283E-2,-2.055131E0,5.256694E-1,-2.0933115E0,-1.5721589E0,1.9960058E0,-8.554041E-1,1.3629112E-1,-3.6459702E-1,1.0852332E0,-5.72073E-1,-4.3393245E0,-1.0214806E0,5.282006E-1,-3.0113413E0,-4.6096537E-1,1.4168987E0,6.077562E-1,-3.0680163E0,-3.212419E-2],"categories":[],"categories_nodes":[],"categories_segments":[],"categories_sizes":[],"default_left":[0,0,0,0,0,0,0,0,0,0,0,0,0,0,0,0,0,0,0,0,0,0,0,0,0,0,0,0,0,0,0,0,0,0,0,0,0,0,0,0,0,0,0,0,0,0,0,0,0,0,0,0,0,0,0,0,0,0,0,0,0,0,0,0,0,0,0,0,0,0,0,0,0,0,0,0,0,0,0,0,0,0,0,0,0,0,0,0,0,0,0,0,0,0,0,0,0,0,0],"id":2,"left_children":[1,3,5,7,9,11,13,15,17,19,-1,21,23,25,27,29,31,-1,-1,33,35,37,39,41,43,45,47,49,51,53,-1,55,57,59,61,63,65,67,69,71,73,75,77,79,81,83,85,87,89,91,93,95,97,-1,-1,-1,-1,-1,-1,-1,-1,-1,-1,-1,-1,-1,-1,-1,-1,-1,-1,-1,-1,-1,-1,-1,-1,-1,-1,-1,-1,-1,-1,-1,-1,-1,-1,-1,-1,-1,-1,-1,-1,-1,-1,-1,-1,-1,-1],"loss_changes":[4.110188E4,4.893158E3,6.053037E4,1.4202922E3,1.5684688E3,7.756169E4,4.7027383E3,1.2544548E3,2.1855157E2,1.2323652E3,0E0,9.5911875E3,1.7715654E3,2.2138718E3,2.4370527E3,1.9911273E3,5.0009106E2,0E0,0E0,7.505801E2,6.617739E2,6.504113E3,3.6100938E3,1.1313259E3,1.4373822E3,1.7594711E3,7.4385E2,1.2180356E3,1.7539863E3,1.4781276E3,0E0,1.3215732E2,1.6654736E2,6.369065E2,2.5517383E2,5.499802E2,6.486863E2,1.2139579E3,3.612414E3,2.9830723E3,2.7364219E3,4.5177832E2,8.4433575E2,1.9243119E3,1.3947966E3,5.219519E2,4.4271637E2,4.823629E2,2.9537744E2,6.8317706E2,3.4883325E2,1.9285977E3,7.259795E2,0E0,0E0,0E0,0E0,0E0,0E0,0E0,0E0,0E0,0E0,0E0,0E0,0E0,0E0,0E0,0E0,0E0,0E0,0E0,0E0,0E0,0E0,0E0,0E0,0E0,0E0,0E0,0E0,0E0,0E0,0E0,0E0,0E0,0E0,0E0,0E0,0E0,0E0,0E0,0E0,0E0,0E0,0E0,0E0,0E0,0E0],"parents":[2147483647,0,0,1,1,2,2,3,3,4,4,5,5,6,6,7,7,8,8,9,9,11,11,12,12,13,13,14,14,15,15,16,16,19,19,20,20,21,21,22,22,23,23,24,24,25,25,26,26,27,27,28,28,29,29,31,31,32,32,33,33,34,34,35,35,36,36,37,37,38,38,39,39,40,40,41,41,42,42,43,43,44,44,45,45,46,46,47,47,48,48,49,49,50,50,51,51,52,52],"right_children":[2,4,6,8,10,12,14,16,18,20,-1,22,24,26,28,30,32,-1,-1,34,36,38,40,42,44,46,48,50,52,54,-1,56,58,60,62,64,66,68,70,72,74,76,78,80,82,84,86,88,90,92,94,96,98,-1,-1,-1,-1,-1,-1,-1,-1,-1,-1,-1,-1,-1,-1,-1,-1,-1,-1,-1,-1,-1,-1,-1,-1,-1,-1,-1,-1,-1,-1,-1,-1,-1,-1,-1,-1,-1,-1,-1,-1,-1,-1,-1,-1,-1,-1],"split_conditions":[8E0,2E0,1.7E1,5.2177695E4,3.4099995E1,4E0,1.9E1,4.730857E4,5.38142E4,6E0,-2.9531085E0,1E1,1.1E1,1.0280937E1,2.7530275E4,4.7261117E4,1E0,-1.0728952E0,-3.0787916E0,2.849643E4,2.5862436E1,3.44701E4,2.7169225E4,2.5364037E1,5E0,2E0,5.3584137E4,9.2E0,5.3584137E4,1.42E1,-4.4444437E0,1.36895E1,7E0,1.3E1,5.3119523E4,2.0000002E-1,2.3E0,2E0,8E0,2.708598E4,1.6E1,1.4E0,5.999999E-1,4.588735E4,1.3800001E1,4.730857E4,2.739112E4,3.5647203E4,6E0,1E0,1E-1,5E0,1E0,4.1966322E-1,-1.8935335E0,1.3695498E-1,1.24994E0,2.4352126E0,3.1340724E-1,1.0492991E0,-1.2979659E0,1.5399581E0,5.77975E-1,1.0836276E0,-2.2537553E-1,-6.257727E-1,2.4753983E0,-7.9260117E-1,8.606133E-1,-4.4685435E-1,-3.322632E0,-2.1753387E0,2.180926E0,-3.5262358E0,-2.1695023E0,1.1771839E0,-1.7411934E0,6.8721645E-2,-3.7046409E0,-2.2210283E-2,-2.055131E0,5.256694E-1,-2.0933115E0,-1.5721589E0,1.9960058E0,-8.554041E-1,1.3629112E-1,-3.6459702E-1,1.0852332E0,-5.72073E-1,-4.3393245E0,-1.0214806E0,5.282006E-1,-3.0113413E0,-4.6096537E-1,1.4168987E0,6.077562E-1,-3.0680163E0,-3.212419E-2],"split_indices":[9,8,9,5,6,8,9,5,5,8,0,9,9,1,5,5,8,0,0,5,4,5,5,4,8,8,5,6,5,6,0,0,9,6,5,2,6,8,7,5,9,2,2,5,6,5,5,5,8,8,2,8,8,0,0,0,0,0,0,0,0,0,0,0,0,0,0,0,0,0,0,0,0,0,0,0,0,0,0,0,0,0,0,0,0,0,0,0,0,0,0,0,0,0,0,0,0,0,0],"split_type":[0,0,0,0,0,0,0,0,0,0,0,0,0,0,0,0,0,0,0,0,0,0,0,0,0,0,0,0,0,0,0,0,0,0,0,0,0,0,0,0,0,0,0,0,0,0,0,0,0,0,0,0,0,0,0,0,0,0,0,0,0,0,0,0,0,0,0,0,0,0,0,0,0,0,0,0,0,0,0,0,0,0,0,0,0,0,0,0,0,0,0,0,0,0,0,0,0,0,0],"sum_hessian":[7.359E3,2.471E3,4.888E3,7.1E2,1.761E3,2.777E3,2.111E3,6.88E2,2.2E1,1.754E3,7E0,1.588E3,1.189E3,5.9E2,1.521E3,6.09E2,7.9E1,1.3E1,9E0,1.402E3,3.52E2,3.59E2,1.229E3,3.86E2,8.03E2,3.89E2,2.01E2,1.98E2,1.323E3,6.02E2,7E0,3.8E1,4.1E1,2.8E2,1.122E3,3.01E2,5.1E1,1.58E2,2.01E2,8.4E1,1.145E3,3.33E2,5.3E1,2.67E2,5.36E2,1.08E2,2.81E2,1.93E2,8E0,1.77E2,2.1E1,1.293E3,3E1,5.77E2,2.5E1,1.9E1,1.9E1,3.7E1,4E0,2.7E2,1E1,1.095E3,2.7E1,2.69E2,3.2E1,4.5E1,6E0,8.1E1,7.7E1,5.4E1,1.47E2,6.7E1,1.7E1,9.83E2,1.62E2,3.29E2,4E0,4.8E1,5E0,2.16E2,5.1E1,5.18E2,1.8E1,1.05E2,3E0,4.8E1,2.33E2,2.3E1,1.7E2,6E0,2E0,3E1,1.47E2,1.3E1,8E0,9.17E2,3.76E2,1E1,2E1],"tree_param":{"num_deleted":"0","num_feature":"10","num_nodes":"99","size_leaf_vector":"1"}},{"base_weights":[-1.0364497E-2,2.1157224E0,-1.306564E0,2.3382334E-1,2.875566E0,-3.5187707E0,2.0754473E0,1.0800252E0,-2.7220984E0,2.9206452E0,-2.2054036E0,-6.701613E0,7.244074E-1,-6.164497E-1,2.4876027E0,4.856016E0,6.9986445E-1,4.7731996E-1,-5.1976624E0,3.2044065E0,1.7967153E0,-7.541319E0,-3.7614975E0,8.5072786E-1,-5.700004E0,2.0320642E0,-1.9951303E0,2.8578815E0,2.9724398E-1,1.5684031E0,5.889927E0,-3.5484666E-1,1.9816726E0,-2.8455045E0,2.569774E0,-2.4750762E0,-7.7155786E0,2.0731988E0,3.4239357E0,2.0599902E0,-3.6049168E0,-5.961833E0,-9.790836E0,-7.0344086E0,-7.8509694E-1,3.7391737E0,6.0227704E-1,6.8595886E-2,-1.1999259E1,4.5296164E0,-1.5225675E0,2.685164E0,-3.866169E0,2.9136815E0,-3.7937384E0,3.0656295E0,-1.3389366E0,-1.1474808E0,1.6766866E0,1.8336673E0,2.66568E-1,6.448783E-1,-4.3682763E-1,7.480613E-1,-1.262582E0,-2.664062E0,-4.867735E-1,1.7151912E0,4.183295E-1,-3.9012206E0,-5.29635E-1,3.8756302E-1,-2.6755648E0,9.251676E-1,-4.2154458E-1,1.0783693E0,5.660764E-1,-5.7884353E-1,7.4383307E-1,-3.0641239E0,1.0093213E0,-1.8761632E0,1.5611082E0,-3.1424756E0,-1.7734904E0,-4.862797E-1,-2.4316578E0,-2.7341766E0,4.2448977E-1,1.4866314E0,-5.754576E-1,-5.077223E-2,6.279228E-1,1.1125255E0,-5.883448E-1,-1.9933769E0,-4.6062155E0,7.5663574E-2,1.607424E0,1.8831125E-1,-1.1508749E0,2.14412E0,2.700501E-1,-2.092337E0,-6.4706E-1,5.782996E-1,1.1664077E0,1.4435928E0,2.3371309E-1,-3.8298073E0,-8.9356214E-2],"categories":[],"categories_nodes":[],"categories_segments":[],"categories_sizes":[],"default_left":[0,0,0,0,0,0,0,0,0,0,0,0,0,0,0,0,0,0,0,0,0,0,0,0,0,0,0,0,0,0,0,0,0,0,0,0,0,0,0,0,0,0,0,0,0,0,0,0,0,0,0,0,0,0,0,0,0,0,0,0,0,0,0,0,0,0,0,0,0,0,0,0,0,0,0,0,0,0,0,0,0,0,0,0,0,0,0,0,0,0,0,0,0,0,0,0,0,0,0,0,0,0,0,0,0,0,0,0,0,0,0],"id":3,"left_children":[1,3,5,7,9,11,13,15,17,19,-1,21,23,25,27,29,31,33,35,37,39,41,43,45,47,49,51,53,55,57,59,61,63,65,67,69,71,73,75,77,79,81,83,85,87,89,91,93,95,97,99,101,103,105,-1,107,109,-1,-1,-1,-1,-1,-1,-1,-1,-1,-1,-1,-1,-1,-1,-1,-1,-1,-1,-1,-1,-1,-1,-1,-1,-1,-1,-1,-1,-1,-1,-1,-1,-1,-1,-1,-1,-1,-1,-1,-1,-1,-1,-1,-1,-1,-1,-1,-1,-1,-1,-1,-1,-1,-1],"loss_changes":[2.0285693E4,3.9860244E3,3.4221156E4,2.0114889E3,9.370586E2,3.7347195E4,2.008582E3,8.937787E2,1.4202266E3,6.2508203E2,0E0,3.8723828E3,9.673295E2,8.840548E2,1.2716768E3,1.8451099E2,7.6995544E2,5.565881E2,6.732827E2,3.8476953E2,5.77694E2,4.3048125E3,3.4332246E3,8.3307715E2,8.3659436E2,7.4376044E2,1.402746E3,1.1978184E3,1.0368488E3,3.4664044E2,4.2375854E1,8.663853E2,8.248214E2,2.1437105E2,1.7329941E2,3.5062433E2,5.749778E2,9.148584E2,3.3939844E2,6.456947E2,9.094852E2,2.3933828E3,1.2781914E3,9.610039E2,3.4211484E3,6.4254346E2,1.2344948E3,1.033156E2,9.558057E1,1.7228876E2,1.7653458E2,3.5993262E2,5.906394E2,1.2779473E3,0E0,3.3567078E2,1.7092996E3,0E0,0E0,0E0,0E0,0E0,0E0,0E0,0E0,0E0,0E0,0E0,0E0,0E0,0E0,0E0,0E0,0E0,0E0,0E0,0E0,0E0,0E0,0E0,0E0,0E0,0E0,0E0,0E0,0E0,0E0,0E0,0E0,0E0,0E0,0E0,0E0,0E0,0E0,0E0,0E0,0E0,0E0,0E0,0E0,0E0,0E0,0E0,0E0,0E0,0E0,0E0,0E0,0E0,0E0],"parents":[2147483647,0,0,1,1,2,2,3,3,4,4,5,5,6,6,7,7,8,8,9,9,11,11,12,12,13,13,14,14,15,15,16,16,17,17,18,18,19,19,20,20,21,21,22,22,23,23,24,24,25,25,26,26,27,27,28,28,29,29,30,30,31,31,32,32,33,33,34,34,35,35,36,36,37,37,38,38,39,39,40,40,41,41,42,42,43,43,44,44,45,45,46,46,47,47,48,48,49,49,50,50,51,51,52,52,53,53,55,55,56,56],"right_children":[2,4,6,8,10,12,14,16,18,20,-1,22,24,26,28,30,32,34,36,38,40,42,44,46,48,50,52,54,56,58,60,62,64,66,68,70,72,74,76,78,80,82,84,86,88,90,92,94,96,98,100,102,104,106,-1,108,110,-1,-1,-1,-1,-1,-1,-1,-1,-1,-1,-1,-1,-1,-1,-1,-1,-1,-1,-1,-1,-1,-1,-1,-1,-1,-1,-1,-1,-1,-1,-1,-1,-1,-1,-1,-1,-1,-1,-1,-1,-1,-1,-1,-1,-1,-1,-1,-1,-1,-1,-1,-1,-1,-1],"split_conditions":[9E0,2E0,1.8E1,7E0,3.4099995E1,4E0,2.7530275E4,-7.695613E-1,3.353255E4,6E0,-2.2054036E0,1.6E1,5.2885363E4,2E-1,6E0,-2.8098664E0,7.343666E0,2.7530275E4,8E0,2.780524E4,3.0918108E1,1.24895E1,3.5647203E4,4.3894997E0,1.6223053E1,1.8847641E1,2.7031193E4,3.4099995E1,3.45142E4,1E0,3.4939934E4,4E-1,5.2177695E4,2E0,2.8914938E4,3.4709688E4,3E0,3.4999998E0,4.959448E4,2.7352227E4,1.1E0,1.68E1,6E0,2.7169225E4,4E0,2.9693727E4,1.0822374E1,1.5058456E1,1.5E1,2.7020588E4,2.7148594E4,6.8894997E0,2.1495943E0,7.404948E0,-3.7937384E0,1E0,3.541139E4,-1.1474808E0,1.6766866E0,1.8336673E0,2.66568E-1,6.448783E-1,-4.3682763E-1,7.480613E-1,-1.262582E0,-2.664062E0,-4.867735E-1,1.7151912E0,4.183295E-1,-3.9012206E0,-5.29635E-1,3.8756302E-1,-2.6755648E0,9.251676E-1,-4.2154458E-1,1.0783693E0,5.660764E-1,-5.7884353E-1,7.4383307E-1,-3.0641239E0,1.0093213E0,-1.8761632E0,1.5611082E0,-3.1424756E0,-1.7734904E0,-4.862797E-1,-2.4316578E0,-2.7341766E0,4.2448977E-1,1.4866314E0,-5.754576E-1,-5.077223E-2,6.279228E-1,1.1125255E0,-5.883448E-1,-1.9933769E0,-4.6062155E0,7.5663574E-2,1.607424E0,1.8831125E-1,-1.1508749E0,2.14412E0,2.700501E-1,-2.092337E0,-6.4706E-1,5.782996E-1,1.1664077E0,1.4435928E0,2.3371309E-1,-3.8298073E0,-8.9356214E-2],"split_indices":[9,8,9,9,6,8,5,1,5,8,0,9,5,6,8,1,1,5,9,5,4,0,5,0,1,4,5,6,5,8,5,6,5,7,5,5,7,6,5,5,6,6,6,5,7,5,1,1,9,5,5,0,1,1,0,6,5,0,0,0,0,0,0,0,0,0,0,0,0,0,0,0,0,0,0,0,0,0,0,0,0,0,0,0,0,0,0,0,0,0,0,0,0,0,0,0,0,0,0,0,0,0,0,0,0,0,0,0,0,0,0],"split_type":[0,0,0,0,0,0,0,0,0,0,0,0,0,0,0,0,0,0,0,0,0,0,0,0,0,0,0,0,0,0,0,0,0,0,0,0,0,0,0,0,0,0,0,0,0,0,0,0,0,0,0,0,0,0,0,0,0,0,0,0,0,0,0,0,0,0,0,0,0,0,0,0,0,0,0,0,0,0,0,0,0,0,0,0,0,0,0,0,0,0,0,0,0,0,0,0,0,0,0,0,0,0,0,0,0,0,0,0,0,0,0],"sum_hessian":[7.359E3,2.787E3,4.572E3,8.02E2,1.985E3,2.764E3,1.808E3,6.24E2,1.78E2,1.977E3,8E0,1.579E3,1.185E3,2.4E2,1.568E3,5.6E1,5.68E2,7.8E1,1E2,1.577E3,4E2,1.227E3,3.52E2,1.163E3,2.2E1,8.2E1,1.58E2,1.341E3,2.27E2,1.4E1,4.2E1,3.12E2,2.56E2,3E1,4.8E1,4.9E1,5.1E1,2.58E2,1.319E3,3.82E2,1.8E1,7.23E2,5.04E2,1.67E2,1.85E2,9.1E1,1.072E3,1.2E1,1E1,4.8E1,3.4E1,4.5E1,1.13E2,1.337E3,4E0,8.4E1,1.43E2,6E0,8E0,4E1,2E0,9.5E1,2.17E2,2.37E2,1.9E1,4E0,2.6E1,1.2E1,3.6E1,2E0,4.7E1,6E0,4.5E1,2E2,5.8E1,1.186E3,1.33E2,3.6E1,3.46E2,9E0,9E0,7.05E2,1.8E1,4.27E2,7.7E1,2.8E1,1.39E2,3.8E1,1.47E2,7.5E1,1.6E1,7.07E2,3.65E2,4E0,8E0,5E0,5E0,8E0,4E1,1.8E1,1.6E1,1.2E1,3.3E1,3.9E1,7.4E1,6.66E2,6.71E2,4.7E1,3.7E1,1.1E1,1.32E2],"tree_param":{"num_deleted":"0","num_feature":"10","num_nodes":"111","size_leaf_vector":"1"}},{"base_weights":[-1.0828883E-2,1.6332018E0,-8.420895E-1,-5.083218E-1,1.9937363E0,-2.383769E0,1.1861434E0,1.0917188E0,-1.6864668E0,2.142577E0,-9.661436E-1,-4.6544065E0,6.502029E-1,-8.6017007E-1,1.5293679E0,-7.490916E-1,3.9267797E0,-4.7380285E0,-1.110878E0,1.3296239E0,2.4545522E0,-7.999544E0,2.4371044E-1,-5.216987E0,-1.0348577E0,1.6388079E0,-7.351587E-2,5.2010508E0,-1.4697514E0,2.084512E0,4.2388478E-1,4.9232355E-1,-5.6495E0,5.0609007E0,1.8702291E-1,-2.6701446E0,5.898989E-1,1.8102136E0,-2.6393106E0,6.835142E-1,2.671305E0,-6.6243863E-1,-4.3010125E0,1.9430343E0,-3.1064167E0,-1.2053283E0,-5.886844E0,-1.9923875E0,4.503278E0,1.1681902E0,5.530273E0,-7.51189E-1,1.8146917E0,6.641786E0,1.4215224E0,-1.1789458E0,-4.322393E0,9.95955E-1,2.9022527E0,6.9881475E-1,-5.0703707E0,3.831096E-1,-2.631092E0,3.820693E-1,1.9080452E0,-4.0533212E-1,3.273596E-1,1.3244818E0,-9.4469273E-1,-2.3046467E0,4.9232793E-1,-1.2867982E0,6.4187366E-1,-2.5282555E0,1.16926305E-1,3.5220692E-1,-3.0615973E0,8.272701E-1,6.358227E-2,-7.163667E-1,-2.2445625E-2,1.4467368E-1,9.238036E-1,-1.04370795E-1,-1.8702463E0,9.6504325E-1,-8.785939E-1,-1.5517594E-1,-1.8554075E0,1.774289E0,-8.978041E-1,1.7281035E0,-1.7208844E0,-1.7096888E-1,5.7210916E-1,2.189122E0,1.2554467E0,-7.486156E-2,-2.2527523E0,7.624031E-1,-1.0756694E0,2.1448967E0,8.468684E-1,-5.7971454E-1,6.2469244E-1,-7.127895E-1,1.1793171E0,-4.0387926E-1,5.1861376E-1,-1.2103377E-1,1.0358857E0,7.447386E-1,-4.8174873E-2,-3.537427E-1,-3.1454048E0],"categories":[],"categories_nodes":[],"categories_segments":[],"categories_sizes":[],"default_left":[0,0,0,0,0,0,0,0,0,0,0,0,0,0,0,0,0,0,0,0,0,0,0,0,0,0,0,0,0,0,0,0,0,0,0,0,0,0,0,0,0,0,0,0,0,0,0,0,0,0,0,0,0,0,0,0,0,0,0,0,0,0,0,0,0,0,0,0,0,0,0,0,0,0,0,0,0,0,0,0,0,0,0,0,0,0,0,0,0,0,0,0,0,0,0,0,0,0,0,0,0,0,0,0,0,0,0,0,0,0,0,0,0,0,0],"id":4,"left_children":[1,3,5,7,9,11,13,15,17,19,21,23,25,27,29,31,33,-1,35,37,39,41,43,45,47,49,51,53,55,57,59,61,-1,63,65,67,69,71,73,75,77,79,-1,81,83,85,87,89,91,93,95,97,99,101,103,105,-1,107,109,111,113,-1,-1,-1,-1,-1,-1,-1,-1,-1,-1,-1,-1,-1,-1,-1,-1,-1,-1,-1,-1,-1,-1,-1,-1,-1,-1,-1,-1,-1,-1,-1,-1,-1,-1,-1,-1,-1,-1,-1,-1,-1,-1,-1,-1,-1,-1,-1,-1,-1,-1,-1,-1,-1,-1],"loss_changes":[1.0059684E4,1.9096274E3,1.529017E4,6.7481464E2,9.342744E2,1.9140809E4,1.4846675E3,7.9620056E2,1.6551359E3,5.0778418E2,8.6990717E2,3.2302617E3,8.5153217E2,1.1308654E3,1.1093047E3,2.0969336E3,2.5353381E2,0E0,5.2931604E2,1.0748452E3,5.567158E2,6.8794934E2,5.0701556E2,3.6878555E3,1.149102E3,9.147296E2,8.8171936E2,1.4302698E2,1.0252281E3,1.0688589E3,9.189277E2,6.5082477E2,0E0,2.1825183E2,2.233542E1,3.6672858E2,8.473784E2,1.01567456E3,1.0727888E3,8.665527E2,2.7436133E2,7.932612E0,0E0,9.644972E1,2.566684E2,1.5183297E3,1.8807969E3,1.472955E3,4.4494116E2,5.789625E2,9.782886E1,1.7169303E3,7.232995E2,1.8607239E1,2.3969719E1,1.6731016E3,0E0,8.913596E2,1.2520396E3,8.8639294E2,5.986184E2,0E0,0E0,0E0,0E0,0E0,0E0,0E0,0E0,0E0,0E0,0E0,0E0,0E0,0E0,0E0,0E0,0E0,0E0,0E0,0E0,0E0,0E0,0E0,0E0,0E0,0E0,0E0,0E0,0E0,0E0,0E0,0E0,0E0,0E0,0E0,0E0,0E0,0E0,0E0,0E0,0E0,0E0,0E0,0E0,0E0,0E0,0E0,0E0,0E0,0E0,0E0,0E0,0E0,0E0],"parents":[2147483647,0,0,1,1,2,2,3,3,4,4,5,5,6,6,7,7,8,8,9,9,10,10,11,11,12,12,13,13,14,14,15,15,16,16,18,18,19,19,20,20,21,21,22,22,23,23,24,24,25,25,26,26,27,27,28,28,29,29,30,30,31,31,33,33,34,34,35,35,36,36,37,37,38,38,39,39,40,40,41,41,43,43,44,44,45,45,46,46,47,47,48,48,49,49,50,50,51,51,52,52,53,53,54,54,55,55,57,57,58,58,59,59,60,60],"right_children":[2,4,6,8,10,12,14,16,18,20,22,24,26,28,30,32,34,-1,36,38,40,42,44,46,48,50,52,54,56,58,60,62,-1,64,66,68,70,72,74,76,78,80,-1,82,84,86,88,90,92,94,96,98,100,102,104,106,-1,108,110,112,114,-1,-1,-1,-1,-1,-1,-1,-1,-1,-1,-1,-1,-1,-1,-1,-1,-1,-1,-1,-1,-1,-1,-1,-1,-1,-1,-1,-1,-1,-1,-1,-1,-1,-1,-1,-1,-1,-1,-1,-1,-1,-1,-1,-1,-1,-1,-1,-1,-1,-1,-1,-1,-1,-1],"split_conditions":[8E0,1E0,1.7E1,3.353255E4,1.3500001E1,4E0,1E0,2.935313E4,3.4709688E4,8E0,2E0,2.4881702E1,1.5517629E1,4.0895E0,5E0,2.9064918E4,1.9999993E-1,-4.7380285E0,4.3565703E4,4.6562742E4,2.722102E4,5.7395E0,5E0,2.01827E0,1.1900001E1,1.2E1,1.1011048E1,1.2E1,5.38142E4,5.615486E0,1.3E1,6.2000003E0,-5.6495E0,1.9999999E-1,7.5895004E0,-1.9951439E0,4.8912954E0,2.759468E4,4.755783E4,2.7198879E4,5.3119523E4,1.7068707E1,-4.3010125E0,1.83E1,1E1,2.8118861E4,2.712417E4,2.705446E4,4.286643E4,5E0,1E-1,4.5751234E4,5.2885363E4,3.1587568E4,1.8E1,4.7059547E4,-4.322393E0,1.9E1,8E0,3.0970576E4,1E1,3.831096E-1,-2.631092E0,3.820693E-1,1.9080452E0,-4.0533212E-1,3.273596E-1,1.3244818E0,-9.4469273E-1,-2.3046467E0,4.9232793E-1,-1.2867982E0,6.4187366E-1,-2.5282555E0,1.16926305E-1,3.5220692E-1,-3.0615973E0,8.272701E-1,6.358227E-2,-7.163667E-1,-2.2445625E-2,1.4467368E-1,9.238036E-1,-1.04370795E-1,-1.8702463E0,9.6504325E-1,-8.785939E-1,-1.5517594E-1,-1.8554075E0,1.774289E0,-8.978041E-1,1.7281035E0,-1.7208844E0,-1.7096888E-1,5.7210916E-1,2.189122E0,1.2554467E0,-7.486156E-2,-2.2527523E0,7.624031E-1,-1.0756694E0,2.1448967E0,8.468684E-1,-5.7971454E-1,6.2469244E-1,-7.127895E-1,1.1793171E0,-4.0387926E-1,5.1861376E-1,-1.2103377E-1,1.0358857E0,7.447386E-1,-4.8174873E-2,-3.537427E-1,-3.1454048E0],"split_indices":[9,8,9,5,6,8,8,5,5,7,8,4,4,0,8,5,2,0,5,5,5,0,8,1,6,7,1,7,5,1,6,6,0,6,0,1,1,5,5,5,5,4,0,6,7,5,5,5,5,8,6,5,5,5,9,5,0,9,7,5,7,0,0,0,0,0,0,0,0,0,0,0,0,0,0,0,0,0,0,0,0,0,0,0,0,0,0,0,0,0,0,0,0,0,0,0,0,0,0,0,0,0,0,0,0,0,0,0,0,0,0,0,0,0,0],"split_type":[0,0,0,0,0,0,0,0,0,0,0,0,0,0,0,0,0,0,0,0,0,0,0,0,0,0,0,0,0,0,0,0,0,0,0,0,0,0,0,0,0,0,0,0,0,0,0,0,0,0,0,0,0,0,0,0,0,0,0,0,0,0,0,0,0,0,0,0,0,0,0,0,0,0,0,0,0,0,0,0,0,0,0,0,0,0,0,0,0,0,0,0,0,0,0,0,0,0,0,0,0,0,0,0,0,0,0,0,0,0,0,0,0,0,0],"sum_hessian":[7.359E3,2.471E3,4.888E3,3.56E2,2.115E3,2.777E3,2.111E3,1.51E2,2.05E2,2.014E3,1.01E2,1.588E3,1.189E3,3.03E2,1.808E3,9.2E1,5.9E1,7E0,1.98E2,5.6E2,1.454E3,1.4E1,8.7E1,1.374E3,2.14E2,5.02E2,6.87E2,2.7E1,2.76E2,1.203E3,6.05E2,8.7E1,5E0,4.5E1,1.4E1,1.03E2,9.5E1,5E2,6E1,1.59E2,1.295E3,7E0,7E0,5.8E1,2.9E1,1.97E2,1.177E3,1.83E2,3.1E1,4.49E2,5.3E1,5.06E2,1.81E2,1.9E1,8E0,2.71E2,5E0,5.17E2,6.86E2,5.77E2,2.8E1,8.1E1,6E0,1.2E1,3.3E1,5E0,9E0,6E0,9.7E1,1E1,8.5E1,2.5E1,4.75E2,2E1,4E1,1.53E2,6E0,1.251E3,4.4E1,1E0,6E0,2.6E1,3.2E1,1.6E1,1.3E1,5.5E1,1.42E2,6.2E1,1.115E3,2E1,1.63E2,2.8E1,3E0,1.34E2,3.15E2,2.1E1,3.2E1,4.72E2,3.4E1,1.6E2,2.1E1,1.6E1,3E0,1E0,7E0,2.2E2,5.1E1,1.23E2,3.94E2,9.8E1,5.88E2,1.87E2,3.9E2,1.7E1,1.1E1],"tree_param":{"num_deleted":"0","num_feature":"10","num_nodes":"115","size_leaf_vector":"1"}},{"base_weights":[-1.09909E-2,1.1082779E0,-6.9336796E-1,-4.2462856E-1,1.365224E0,-1.8460665E0,1.068879E0,7.229962E-1,-1.2897571E0,1.486343E0,-9.984316E-1,-4.1650376E0,-1.14456736E-1,-5.07888E-1,1.4003925E0,-5.995458E-1,2.7250817E0,-3.4942956E0,-9.1068995E-1,2.0510666E0,1.224102E0,-6.828391E0,-7.413964E-2,-4.712492E0,-1.4038428E0,3.281268E0,-3.381733E-1,4.120215E0,-9.9157757E-1,1.515047E0,-3.7250607E0,2.1790189E-1,-4.237125E0,3.7432356E0,-6.094616E-1,-1.7468436E0,2.1567595E0,2.855774E0,1.3948684E0,-5.015868E-1,1.5045627E0,-5.5605865E-1,-3.4935267E0,1.3002778E0,-2.7423182E0,2.5868762E0,-4.7892504E0,-1.9909687E0,9.774509E0,8.57799E0,2.063709E0,-1.4079939E0,6.898074E-1,2.1066236E0,5.1751037E0,-6.3922685E-1,-4.483186E0,2.0987146E0,7.2028553E-1,-4.4044094E0,1.3609692E0,2.5822598E-1,-2.184745E0,-1.4573953E-1,1.2880346E0,3.77153E-2,-1.2246614E0,-1.570393E-1,-1.5202388E0,-7.040043E-1,1.0210891E0,1.0922488E0,5.9911674E-1,-1.9575775E-1,5.238147E-1,-1.6720976E0,1.0123003E-1,1.8719023E-1,6.4328796E-1,-6.089118E-1,-1.667388E-2,2.503384E-2,7.7649856E-1,-1.9417152E-1,-1.556932E0,-1.6942267E0,-1.0321065E0,3.7106407E-1,-1.043058E0,5.132397E0,-1.6508136E0,5.366217E-1,4.5505476E0,2.7672887E-1,2.3887568E0,1.3919277E0,-5.523242E-1,2.8254542E-1,-2.2246442E0,-4.2916262E-1,8.871333E-1,8.675693E-1,1.6773497E0,1.0445509E0,-2.9604316E-1,7.2540796E-1,-2.903044E-2,-9.831373E-2,6.043494E-1,-3.2441227E0,-9.16311E-1],"categories":[],"categories_nodes":[],"categories_segments":[],"categories_sizes":[],"default_left":[0,0,0,0,0,0,0,0,0,0,0,0,0,0,0,0,0,0,0,0,0,0,0,0,0,0,0,0,0,0,0,0,0,0,0,0,0,0,0,0,0,0,0,0,0,0,0,0,0,0,0,0,0,0,0,0,0,0,0,0,0,0,0,0,0,0,0,0,0,0,0,0,0,0,0,0,0,0,0,0,0,0,0,0,0,0,0,0,0,0,0,0,0,0,0,0,0,0,0,0,0,0,0,0,0,0,0,0,0,0,0],"id":5,"left_children":[1,3,5,7,9,11,13,15,17,19,21,23,25,27,29,31,33,-1,35,37,39,41,43,45,47,49,51,53,55,57,59,61,-1,63,65,67,69,71,73,75,77,79,-1,81,83,-1,85,87,89,91,93,95,97,99,101,103,-1,105,107,109,-1,-1,-1,-1,-1,-1,-1,-1,-1,-1,-1,-1,-1,-1,-1,-1,-1,-1,-1,-1,-1,-1,-1,-1,-1,-1,-1,-1,-1,-1,-1,-1,-1,-1,-1,-1,-1,-1,-1,-1,-1,-1,-1,-1,-1,-1,-1,-1,-1,-1,-1],"loss_changes":[5.622067E3,1.0987012E3,9.291288E3,3.990625E2,6.851294E2,1.1102527E4,9.463113E2,4.597105E2,8.885239E2,3.339585E2,6.299582E2,1.7801289E3,1.2044425E3,7.0923346E2,8.841902E2,1.1638871E3,2.3654175E2,0E0,5.731662E2,3.7568286E2,7.528718E2,4.7691547E2,3.7761926E2,1.0505703E3,1.3123915E3,6.143063E2,1.6363069E3,5.282138E1,1.3964603E3,6.771394E2,2.0519415E2,4.8843173E2,0E0,1.2540979E2,4.391571E1,7.082631E2,2.775172E2,2.0980249E2,2.8730328E2,9.2959515E2,7.5185254E2,5.787427E0,0E0,1.06363174E2,1.7610745E2,0E0,1.1161602E3,9.059921E2,1.2144926E3,7.782699E2,5.379629E2,1.9179391E3,1.5573315E3,4.0330044E1,1.8800964E0,4.0451184E2,0E0,5.912136E2,8.4294226E2,2.3520935E2,0E0,0E0,0E0,0E0,0E0,0E0,0E0,0E0,0E0,0E0,0E0,0E0,0E0,0E0,0E0,0E0,0E0,0E0,0E0,0E0,0E0,0E0,0E0,0E0,0E0,0E0,0E0,0E0,0E0,0E0,0E0,0E0,0E0,0E0,0E0,0E0,0E0,0E0,0E0,0E0,0E0,0E0,0E0,0E0,0E0,0E0,0E0,0E0,0E0,0E0,0E0],"parents":[2147483647,0,0,1,1,2,2,3,3,4,4,5,5,6,6,7,7,8,8,9,9,10,10,11,11,12,12,13,13,14,14,15,15,16,16,18,18,19,19,20,20,21,21,22,22,23,23,24,24,25,25,26,26,27,27,28,28,29,29,30,30,31,31,33,33,34,34,35,35,36,36,37,37,38,38,39,39,40,40,41,41,43,43,44,44,46,46,47,47,48,48,49,49,50,50,51,51,52,52,53,53,54,54,55,55,57,57,58,58,59,59],"right_children":[2,4,6,8,10,12,14,16,18,20,22,24,26,28,30,32,34,-1,36,38,40,42,44,46,48,50,52,54,56,58,60,62,-1,64,66,68,70,72,74,76,78,80,-1,82,84,-1,86,88,90,92,94,96,98,100,102,104,-1,106,108,110,-1,-1,-1,-1,-1,-1,-1,-1,-1,-1,-1,-1,-1,-1,-1,-1,-1,-1,-1,-1,-1,-1,-1,-1,-1,-1,-1,-1,-1,-1,-1,-1,-1,-1,-1,-1,-1,-1,-1,-1,-1,-1,-1,-1,-1,-1,-1,-1,-1,-1,-1],"split_conditions":[9E0,1E0,1.8E1,3.353255E4,1.3500001E1,3E0,2.7892402E4,2.935313E4,3.4709688E4,2E-1,2E0,2.3598541E1,-3.97974E-1,9.0645685E0,5.3584137E4,2.9064918E4,1.9999993E-1,-3.4942956E0,2.6E0,5.7895E0,2.780524E4,5.7395E0,5E0,2.7030684E4,4.9050547E4,2.7552121E4,5E0,2.7426562E4,2.7839445E4,4E0,1E0,6.2000003E0,-4.237125E0,1E-1,8E0,1.2E0,4.012009E4,2.935313E4,2E0,2E0,1.3000001E0,1.7068707E1,-3.4935267E0,1.8500002E1,1E1,2.5868762E0,1.3000001E0,1E0,1.5639501E1,2.7309889E4,2.2493519E1,2.7169225E4,1.3800001E1,1.9E1,-9.605E-1,2.7007553E4,-4.483186E0,8.1E0,1.11895E1,1.3432924E1,1.3609692E0,2.5822598E-1,-2.184745E0,-1.4573953E-1,1.2880346E0,3.77153E-2,-1.2246614E0,-1.570393E-1,-1.5202388E0,-7.040043E-1,1.0210891E0,1.0922488E0,5.9911674E-1,-1.9575775E-1,5.238147E-1,-1.6720976E0,1.0123003E-1,1.8719023E-1,6.4328796E-1,-6.089118E-1,-1.667388E-2,2.503384E-2,7.7649856E-1,-1.9417152E-1,-1.556932E0,-1.6942267E0,-1.0321065E0,3.7106407E-1,-1.043058E0,5.132397E0,-1.6508136E0,5.366217E-1,4.5505476E0,2.7672887E-1,2.3887568E0,1.3919277E0,-5.523242E-1,2.8254542E-1,-2.2246442E0,-4.2916262E-1,8.871333E-1,8.675693E-1,1.6773497E0,1.0445509E0,-2.9604316E-1,7.2540796E-1,-2.903044E-2,-9.831373E-2,6.043494E-1,-3.2441227E0,-9.16311E-1],"split_indices":[9,8,9,5,6,8,5,5,5,6,8,4,1,4,5,5,2,0,6,0,5,0,8,5,5,5,8,5,5,8,6,6,0,6,9,6,5,5,8,7,6,4,0,6,7,0,6,8,0,5,4,5,6,9,0,5,0,6,0,1,0,0,0,0,0,0,0,0,0,0,0,0,0,0,0,0,0,0,0,0,0,0,0,0,0,0,0,0,0,0,0,0,0,0,0,0,0,0,0,0,0,0,0,0,0,0,0,0,0,0,0],"split_type":[0,0,0,0,0,0,0,0,0,0,0,0,0,0,0,0,0,0,0,0,0,0,0,0,0,0,0,0,0,0,0,0,0,0,0,0,0,0,0,0,0,0,0,0,0,0,0,0,0,0,0,0,0,0,0,0,0,0,0,0,0,0,0,0,0,0,0,0,0,0,0,0,0,0,0,0,0,0,0,0,0,0,0,0,0,0,0,0,0,0,0,0,0,0,0,0,0,0,0,0,0,0,0,0,0,0,0,0,0,0,0],"sum_hessian":[7.359E3,2.787E3,4.572E3,4E2,2.387E3,2.764E3,1.808E3,1.72E2,2.28E2,2.271E3,1.16E2,1.181E3,1.583E3,3.14E2,1.494E3,1.04E2,6.8E1,7E0,2.21E2,7.18E2,1.553E3,1.5E1,1.01E2,9.85E2,1.96E2,9.7E1,1.486E3,2.9E1,2.85E2,1.462E3,3.2E1,9.9E1,5E0,5.2E1,1.6E1,1.74E2,4.7E1,3.21E2,3.97E2,2.17E2,1.336E3,7E0,8E0,6.7E1,3.4E1,5E0,9.8E2,1.87E2,9E0,1.7E1,8E1,7.28E2,7.58E2,1.1E1,1.8E1,2.79E2,6E0,8.42E2,6.2E2,3E1,2E0,9.2E1,7E0,6E0,4.6E1,1.4E1,2E0,1.28E2,4.6E1,1E1,3.7E1,1.66E2,1.55E2,5.8E1,3.39E2,3E1,1.87E2,5.63E2,7.73E2,1E0,6E0,3.5E1,3.2E1,1.9E1,1.5E1,5.97E2,3.83E2,5.9E1,1.28E2,6E0,3E0,9E0,8E0,6.8E1,1.2E1,4.8E1,6.8E2,7.36E2,2.2E1,2E0,9E0,4E0,1.4E1,2.1E1,2.58E2,7.35E2,1.07E2,3.43E2,2.77E2,4E0,2.6E1],"tree_param":{"num_deleted":"0","num_feature":"10","num_nodes":"111","size_leaf_vector":"1"}},{"base_weights":[-8.761701E-3,-1.0336188E0,4.0250948E-1,-1.5463506E0,1.0124794E0,1.0996703E0,-9.7481824E-2,4.752651E-1,-2.7346401E0,-1.0456699E-1,2.1676216E0,3.825386E0,1.0304091E0,-1.0623723E0,6.409883E-1,-6.996485E0,6.2051874E-1,-1.5621039E0,-3.8910766E0,1.7407358E0,-2.3442247E0,3.452073E-1,2.5599263E0,3.0551353E0,1.5588474E0,1.2511647E0,1.6922632E-1,-2.137358E0,5.1811296E-1,1.0463895E0,-1.887193E-1,4.0162766E-1,-3.3994355E0,-1.5534347E-1,1.396887E0,1.4713159E-1,-2.7421103E0,-4.728635E0,6.521359E-1,2.263953E0,-2.5471544E0,-4.865009E0,-1.5813887E0,-2.257955E0,1.4926606E0,3.0117133E0,1.3038987E0,1.7006043E-1,4.6107984E0,-5.769547E-1,1.3205438E0,4.6525073E-1,-4.95658E0,-2.7669852E0,1.6204923E0,1.5936924E0,-4.860763E-1,1.6231525E0,1.589088E-1,1.9704152E0,-8.3112365E-1,-1.1857202E-1,8.503417E-1,4.8995316E-1,-1.2217609E0,2.901722E-1,-9.879056E-1,-1.135522E0,8.7561354E-2,-5.6195885E-1,-1.6276464E0,-9.385541E-1,7.2025496E-1,-1.0924516E0,9.586507E-1,-1.6114141E0,1.967388E-1,6.123692E-1,-9.3957645E-1,1.0176178E0,6.854312E-1,5.6475395E-1,-1.6160506E0,4.3596148E-1,-2.9218456E-1,1.5799485E0,9.4985205E-1,-9.3202204E-1,9.4278437E-1,1.2772708E0,3.8175067E-1,-9.998918E-1,2.3738942E-1,-3.3115895E0,5.2864674E-2,9.120908E-1,-9.5558685E-1,3.7676013E0,-1.0931764E-2,7.424168E-1,-2.9391704E-2,-1.0172846E0,1.343904E-1,2.4804054E-1,7.568594E-1,9.677281E-1,-1.4856991E-1,3.47615E-2,1.0192047E0,-1.9009007E0,-1.2817834E-1],"categories":[],"categories_nodes":[],"categories_segments":[],"categories_sizes":[],"default_left":[0,0,0,0,0,0,0,0,0,0,0,0,0,0,0,0,0,0,0,0,0,0,0,0,0,0,0,0,0,0,0,0,0,0,0,0,0,0,0,0,0,0,0,0,0,0,0,0,0,0,0,0,0,0,0,0,0,0,0,0,0,0,0,0,0,0,0,0,0,0,0,0,0,0,0,0,0,0,0,0,0,0,0,0,0,0,0,0,0,0,0,0,0,0,0,0,0,0,0,0,0,0,0,0,0,0,0,0,0,0,0],"id":6,"left_children":[1,3,5,7,9,11,13,15,17,19,21,23,25,27,29,31,33,35,37,39,41,43,45,47,-1,49,51,53,55,57,59,-1,-1,61,63,65,67,69,71,73,-1,-1,75,-1,77,79,81,83,85,87,89,91,93,95,97,99,101,103,105,107,109,-1,-1,-1,-1,-1,-1,-1,-1,-1,-1,-1,-1,-1,-1,-1,-1,-1,-1,-1,-1,-1,-1,-1,-1,-1,-1,-1,-1,-1,-1,-1,-1,-1,-1,-1,-1,-1,-1,-1,-1,-1,-1,-1,-1,-1,-1,-1,-1,-1,-1],"loss_changes":[3.1026133E3,2.2130676E3,1.8311685E3,4.0515178E3,5.4604364E2,4.1025537E2,2.1810618E3,6.826532E2,1.4339556E3,8.967755E2,1.4782422E2,4.114026E1,4.0681592E2,2.2556792E3,5.834533E2,4.4876617E2,3.7006287E2,1.0673479E3,2.035063E3,6.56249E2,1.01143225E3,3.544671E2,9.3108154E1,1.6527942E2,0E0,2.168855E2,6.6691144E2,1.8736592E3,5.818606E2,5.960663E2,7.9224896E2,0E0,0E0,2.2203221E2,4.0340906E2,6.154068E2,9.915403E2,8.872461E2,5.628581E2,6.3877594E2,0E0,0E0,8.005401E2,0E0,9.264778E1,2.6811157E1,1.9209448E2,2.1966347E1,6.059021E0,6.0257513E2,2.2626758E2,5.1657355E2,7.511753E2,1.6542612E3,2.0665723E3,3.8774847E2,7.585239E2,5.0375317E2,9.2442914E2,3.4627313E2,9.755663E2,0E0,0E0,0E0,0E0,0E0,0E0,0E0,0E0,0E0,0E0,0E0,0E0,0E0,0E0,0E0,0E0,0E0,0E0,0E0,0E0,0E0,0E0,0E0,0E0,0E0,0E0,0E0,0E0,0E0,0E0,0E0,0E0,0E0,0E0,0E0,0E0,0E0,0E0,0E0,0E0,0E0,0E0,0E0,0E0,0E0,0E0,0E0,0E0,0E0,0E0],"parents":[2147483647,0,0,1,1,2,2,3,3,4,4,5,5,6,6,7,7,8,8,9,9,10,10,11,11,12,12,13,13,14,14,15,15,16,16,17,17,18,18,19,19,20,20,21,21,22,22,23,23,25,25,26,26,27,27,28,28,29,29,30,30,33,33,34,34,35,35,36,36,37,37,38,38,39,39,42,42,44,44,45,45,46,46,47,47,48,48,49,49,50,50,51,51,52,52,53,53,54,54,55,55,56,56,57,57,58,58,59,59,60,60],"right_children":[2,4,6,8,10,12,14,16,18,20,22,24,26,28,30,32,34,36,38,40,42,44,46,48,-1,50,52,54,56,58,60,-1,-1,62,64,66,68,70,72,74,-1,-1,76,-1,78,80,82,84,86,88,90,92,94,96,98,100,102,104,106,108,110,-1,-1,-1,-1,-1,-1,-1,-1,-1,-1,-1,-1,-1,-1,-1,-1,-1,-1,-1,-1,-1,-1,-1,-1,-1,-1,-1,-1,-1,-1,-1,-1,-1,-1,-1,-1,-1,-1,-1,-1,-1,-1,-1,-1,-1,-1,-1,-1,-1,-1],"split_conditions":[2E0,1.9E1,1E1,7E0,1E0,2.7015365E4,1.6E1,2.7031193E4,1E0,5.9999996E-1,2.817749E4,2.7011623E4,6E0,5E0,1.1E1,5.2895E0,1E0,6.001626E0,1.7E1,5.0753945E4,4.913044E0,2E0,4.5240324E4,2.0000002E0,1.5588474E0,2.7169225E4,3.0158459E1,6.5000005E0,1E0,5E0,9.292254E0,4.0162766E-1,-3.3994355E0,1.3599999E1,1.3500001E1,3.4939934E4,4.7012547E4,9E0,8E0,2.7072154E4,-2.5471544E0,-4.865009E0,1.8000002E0,-2.257955E0,9E-1,8.131651E0,1E-1,1.7376637E0,5.673004E0,6.821705E0,2.7198879E4,2.7352227E4,1.1E0,2.7169225E4,6.7895E0,1.4E1,2.9693727E4,9E0,3.286485E4,4E0,4.0895E0,-1.1857202E-1,8.503417E-1,4.8995316E-1,-1.2217609E0,2.901722E-1,-9.879056E-1,-1.135522E0,8.7561354E-2,-5.6195885E-1,-1.6276464E0,-9.385541E-1,7.2025496E-1,-1.0924516E0,9.586507E-1,-1.6114141E0,1.967388E-1,6.123692E-1,-9.3957645E-1,1.0176178E0,6.854312E-1,5.6475395E-1,-1.6160506E0,4.3596148E-1,-2.9218456E-1,1.5799485E0,9.4985205E-1,-9.3202204E-1,9.4278437E-1,1.2772708E0,3.8175067E-1,-9.998918E-1,2.3738942E-1,-3.3115895E0,5.2864674E-2,9.120908E-1,-9.5558685E-1,3.7676013E0,-1.0931764E-2,7.424168E-1,-2.9391704E-2,-1.0172846E0,1.343904E-1,2.4804054E-1,7.568594E-1,9.677281E-1,-1.4856991E-1,3.47615E-2,1.0192047E0,-1.9009007E0,-1.2817834E-1],"split_indices":[8,9,9,9,8,5,9,5,8,6,5,5,8,8,7,0,8,1,9,5,4,7,5,6,0,5,4,6,6,8,4,0,0,6,6,5,5,9,7,5,0,0,6,0,2,1,2,1,1,1,5,5,6,5,0,9,5,7,5,8,0,0,0,0,0,0,0,0,0,0,0,0,0,0,0,0,0,0,0,0,0,0,0,0,0,0,0,0,0,0,0,0,0,0,0,0,0,0,0,0,0,0,0,0,0,0,0,0,0,0,0],"split_type":[0,0,0,0,0,0,0,0,0,0,0,0,0,0,0,0,0,0,0,0,0,0,0,0,0,0,0,0,0,0,0,0,0,0,0,0,0,0,0,0,0,0,0,0,0,0,0,0,0,0,0,0,0,0,0,0,0,0,0,0,0,0,0,0,0,0,0,0,0,0,0,0,0,0,0,0,0,0,0,0,0,0,0,0,0,0,0,0,0,0,0,0,0,0,0,0,0,0,0,0,0,0,0,0,0,0,0,0,0,0,0],"sum_hessian":[7.359E3,2.107E3,5.252E3,1.685E3,4.22E2,2.193E3,3.059E3,6.24E2,1.061E3,2.15E2,2.07E2,5.3E1,2.14E3,1.326E3,1.733E3,1.1E1,6.13E2,5.28E2,5.33E2,1.18E2,9.7E1,3.7E1,1.7E2,3.6E1,1.7E1,1.703E3,4.37E2,7.89E2,5.37E2,1.164E3,5.69E2,4E0,7E0,3.07E2,3.06E2,2.16E2,3.12E2,4.5E2,8.3E1,1.13E2,5E0,4E0,9.3E1,4E0,3.3E1,1.24E2,4.6E1,1.3E1,2.3E1,6.2E1,1.641E3,4.14E2,2.3E1,6.76E2,1.13E2,2.59E2,2.78E2,7.05E2,4.59E2,1.3E2,4.39E2,2.85E2,2.2E1,2.94E2,1.2E1,1.75E2,4.1E1,2.32E2,8E1,8.9E1,3.61E2,2.6E1,5.7E1,1.5E1,9.8E1,3.4E1,5.9E1,3E1,3E0,7.9E1,4.5E1,4.3E1,3E0,6E0,7E0,1.4E1,9E0,3.7E1,2.5E1,2.5E1,1.616E3,3.2E1,3.82E2,1E1,1.3E1,4.5E1,6.31E2,1.4E1,9.9E1,1.7E2,8.9E1,6.7E1,2.11E2,3.75E2,3.3E2,8E1,3.79E2,5.7E1,7.3E1,2.9E1,4.1E2],"tree_param":{"num_deleted":"0","num_feature":"10","num_nodes":"111","size_leaf_vector":"1"}},{"base_weights":[-7.732862E-3,-7.3209363E-1,2.829506E-1,1.5139948E0,-9.618381E-1,7.706258E-1,-6.680182E-2,-1.7309492E0,1.6957923E0,-1.2777503E0,6.758552E-1,9.92433E-1,2.8673497E-1,-7.409904E-1,4.491815E-1,1.9556559E0,-2.0327647E0,-1.0481715E0,-4.1338534E0,2.4237494E0,-2.3928077E0,9.190001E-1,3.4081833E0,-4.703971E0,4.7306007E-1,-2.0166953E0,9.6617766E-2,4.789728E-1,-2.4631631E0,2.2797117E0,-2.382577E0,2.3059947E0,-5.0327387E0,1.4176251E-1,-1.6283914E0,-1.17287245E1,-2.1920745E0,1.5999993E0,5.4452972E0,-3.1594462E0,-3.5352126E-1,1.0428776E0,-1.8930554E0,2.8061988E0,5.174311E0,-3.0626884E-1,1.6192447E0,-2.5926676E0,8.7953854E-1,1.1559601E0,-5.5237025E-1,2.4962036E-1,1.4919424E0,4.8805228E-1,1.0194726E0,-1.0866165E0,8.8691026E-1,2.265584E-1,1.081519E0,-1.8594786E0,4.688885E-1,-5.343227E-2,1.118628E0,-7.3832905E-1,1.7852135E-1,-3.762914E0,-1.8377085E0,4.9443543E-1,-1.1155933E0,1.4666846E-1,1.0464332E0,6.6701555E-1,2.093054E0,-2.009503E0,-7.724702E-1,-1.3699262E0,2.3829535E-1,4.4879797E-1,1.8961677E-1,9.756298E-1,-1.172715E0,4.5034328E-1,1.0814257E0,7.891305E-1,1.7666303E0,1.6526294E-1,-4.2177534E-1,9.930971E-1,3.2237786E-1,-8.786513E-1,4.8959824E-1,4.045545E0,-2.728356E-1,1.491778E-1,1.6522266E0,-1.024829E0,-3.7205478E-3,-8.9607544E-2,2.1833695E-1,5.990336E-1,-9.294615E-1],"categories":[],"categories_nodes":[],"categories_segments":[],"categories_sizes":[],"default_left":[0,0,0,0,0,0,0,0,0,0,0,0,0,0,0,0,0,0,0,0,0,0,0,0,0,0,0,0,0,0,0,0,0,0,0,0,0,0,0,0,0,0,0,0,0,0,0,0,0,0,0,0,0,0,0,0,0,0,0,0,0,0,0,0,0,0,0,0,0,0,0,0,0,0,0,0,0,0,0,0,0,0,0,0,0,0,0,0,0,0,0,0,0,0,0,0,0,0,0,0,0],"id":7,"left_children":[1,3,5,7,9,11,13,-1,15,17,19,21,23,25,27,29,31,33,35,37,39,41,43,-1,45,47,49,51,-1,53,55,57,59,61,63,65,67,69,71,73,75,77,79,81,83,85,87,89,91,93,95,97,99,-1,-1,-1,-1,-1,-1,-1,-1,-1,-1,-1,-1,-1,-1,-1,-1,-1,-1,-1,-1,-1,-1,-1,-1,-1,-1,-1,-1,-1,-1,-1,-1,-1,-1,-1,-1,-1,-1,-1,-1,-1,-1,-1,-1,-1,-1,-1,-1],"loss_changes":[1.5499266E3,1.0892399E3,8.960325E2,2.6932404E2,9.905869E2,2.3519836E2,1.0648153E3,0E0,1.9000726E2,1.0474106E3,1.668546E3,2.636709E2,2.0631326E3,1.4181484E3,4.512778E2,2.5848096E2,1.8081561E2,1.0262002E3,1.7292494E3,4.8410962E2,1.7554675E2,5.1091406E2,3.2259796E1,0E0,6.114822E2,8.7972754E2,5.520139E2,4.0132104E2,0E0,1.171546E2,9.673565E1,9.365049E0,7.1187195E1,5.605822E2,1.8511023E3,3.266919E1,5.689116E2,3.2766324E2,1.9173767E2,1.5238153E2,1.5837056E2,2.5966394E2,6.558138E2,3.1064209E1,2.6848755E0,3.853385E2,2.5157343E2,6.282495E2,1.9967802E3,8.7148627E2,7.700259E2,3.7016202E2,7.4539606E2,0E0,0E0,0E0,0E0,0E0,0E0,0E0,0E0,0E0,0E0,0E0,0E0,0E0,0E0,0E0,0E0,0E0,0E0,0E0,0E0,0E0,0E0,0E0,0E0,0E0,0E0,0E0,0E0,0E0,0E0,0E0,0E0,0E0,0E0,0E0,0E0,0E0,0E0,0E0,0E0,0E0,0E0,0E0,0E0,0E0,0E0,0E0,0E0],"parents":[2147483647,0,0,1,1,2,2,3,3,4,4,5,5,6,6,8,8,9,9,10,10,11,11,12,12,13,13,14,14,15,15,16,16,17,17,18,18,19,19,20,20,21,21,22,22,24,24,25,25,26,26,27,27,29,29,30,30,31,31,32,32,33,33,34,34,35,35,36,36,37,37,38,38,39,39,40,40,41,41,42,42,43,43,44,44,45,45,46,46,47,47,48,48,49,49,50,50,51,51,52,52],"right_children":[2,4,6,8,10,12,14,-1,16,18,20,22,24,26,28,30,32,34,36,38,40,42,44,-1,46,48,50,52,-1,54,56,58,60,62,64,66,68,70,72,74,76,78,80,82,84,86,88,90,92,94,96,98,100,-1,-1,-1,-1,-1,-1,-1,-1,-1,-1,-1,-1,-1,-1,-1,-1,-1,-1,-1,-1,-1,-1,-1,-1,-1,-1,-1,-1,-1,-1,-1,-1,-1,-1,-1,-1,-1,-1,-1,-1,-1,-1,-1,-1,-1,-1,-1,-1],"split_conditions":[2E0,-7.5092316E-3,1E1,2.741547E4,4.730857E4,2.2E0,1.6E1,-1.7309492E0,4.1895E0,4.557513E4,5.0753945E4,2.0000002E0,2.3E0,4E0,3.4099995E1,3.4939934E4,7E0,8E0,5.4661274E0,5.7E0,1.8E1,2.8555965E1,8E0,-4.703971E0,1.8671474E1,6.5000005E0,1.02395E1,1.4389501E1,-2.4631631E0,1.7423777E1,1E0,4.3894997E0,1.8E1,4.381862E4,1.9E1,7.9895E0,9.137582E0,1.6E1,8E0,5.4119864E0,1.3432924E1,3.4233246E4,3E-1,5E0,1.964228E1,5E0,3E0,2.804305E1,7.3E0,2.7238941E1,8E0,2E1,5.3119523E4,4.8805228E-1,1.0194726E0,-1.0866165E0,8.8691026E-1,2.265584E-1,1.081519E0,-1.8594786E0,4.688885E-1,-5.343227E-2,1.118628E0,-7.3832905E-1,1.7852135E-1,-3.762914E0,-1.8377085E0,4.9443543E-1,-1.1155933E0,1.4666846E-1,1.0464332E0,6.6701555E-1,2.093054E0,-2.009503E0,-7.724702E-1,-1.3699262E0,2.3829535E-1,4.4879797E-1,1.8961677E-1,9.756298E-1,-1.172715E0,4.5034328E-1,1.0814257E0,7.891305E-1,1.7666303E0,1.6526294E-1,-4.2177534E-1,9.930971E-1,3.2237786E-1,-8.786513E-1,4.8959824E-1,4.045545E0,-2.728356E-1,1.491778E-1,1.6522266E0,-1.024829E0,-3.7205478E-3,-8.9607544E-2,2.1833695E-1,5.990336E-1,-9.294615E-1],"split_indices":[8,1,9,5,5,6,9,0,0,5,5,6,6,8,6,5,9,9,1,6,9,4,9,0,4,6,0,0,0,4,8,0,9,5,9,0,1,9,9,4,1,5,6,8,4,8,8,4,6,4,7,9,5,0,0,0,0,0,0,0,0,0,0,0,0,0,0,0,0,0,0,0,0,0,0,0,0,0,0,0,0,0,0,0,0,0,0,0,0,0,0,0,0,0,0,0,0,0,0,0,0],"split_type":[0,0,0,0,0,0,0,0,0,0,0,0,0,0,0,0,0,0,0,0,0,0,0,0,0,0,0,0,0,0,0,0,0,0,0,0,0,0,0,0,0,0,0,0,0,0,0,0,0,0,0,0,0,0,0,0,0,0,0,0,0,0,0,0,0,0,0,0,0,0,0,0,0,0,0,0,0,0,0,0,0,0,0,0,0,0,0,0,0,0,0,0,0,0,0,0,0,0,0,0,0],"sum_hessian":[7.359E3,2.107E3,5.252E3,1.95E2,1.912E3,2.193E3,3.059E3,4E0,1.91E2,1.603E3,3.09E2,1.503E3,6.9E2,1.326E3,1.733E3,1.79E2,1.2E1,1.485E3,1.18E2,1.97E2,1.12E2,1.46E3,4.3E1,7E0,6.83E2,5.25E2,8.01E2,1.728E3,5E0,1.67E2,1.2E1,5E0,7E0,4.87E2,9.98E2,2.3E1,9.5E1,1.56E2,4.1E1,8.1E1,3.1E1,1.399E3,6.1E1,3.4E1,9E0,4.07E2,2.76E2,4.38E2,8.7E1,3.04E2,4.97E2,1.41E3,3.18E2,1.07E2,6E1,1E1,2E0,3E0,2E0,6E0,1E0,4.48E2,3.9E1,7.26E2,2.72E2,1.9E1,4E0,2.7E1,6.8E1,9.9E1,5.7E1,1.4E1,2.7E1,1E1,7.1E1,6E0,2.5E1,6.64E2,7.35E2,1.7E1,4.4E1,1.4E1,2E1,3E0,6E0,2.29E2,1.78E2,6.6E1,2.1E2,4.06E2,3.2E1,1E1,7.7E1,2.65E2,3.9E1,7.8E1,4.19E2,6.57E2,7.53E2,2.87E2,3.1E1],"tree_param":{"num_deleted":"0","num_feature":"10","num_nodes":"101","size_leaf_vector":"1"}},{"base_weights":[-5.9304126E-3,5.126097E-1,-2.2326228E-1,1.0743529E-1,9.4864047E-1,-7.9908985E-1,2.0481361E-1,4.906219E-1,-8.326965E-1,7.3840284E-1,1.452997E0,-1.5487244E0,2.9543167E-1,-1.4325708E0,4.172541E-1,7.363064E-1,-1.3903097E0,8.123038E-1,-2.2486475E0,7.97691E-1,-4.793585E0,-1.2380475E0,1.64484E0,5.1799495E-2,-2.1580215E0,6.355553E-1,-2.0790184E0,-1.6040422E-1,-9.036334E0,2.559186E0,8.371481E-2,8.287019E-1,-3.0789149E0,1.676803E0,-3.4467378E0,1.1967545E0,-2.5303237E0,-1.6058757E0,-6.2526226E0,1.2241633E0,2.5722525E-1,-8.7645084E-1,-2.0819664E0,2.8047216E-1,-1.5243276E0,2.7344692E0,1.0999715E0,-2.8551438E-1,4.0053606E0,1.6063392E0,-2.3687034E0,-3.660502E-1,1.1380092E0,-2.8243232E0,2.6159115E0,3.695205E0,-1.0236511E0,-5.489714E-1,-1.1478756E1,6.4697213E0,1.9706576E0,-1.3871165E-1,1.6933948E0,1.0497012E-1,4.5194402E-1,-4.3914583E-1,-3.0384262E0,6.399756E-1,-5.287231E-1,-2.0447571E0,-2.1207103E-1,1.3350189E-1,1.3640358E0,5.2395176E-2,-1.0339608E0,-1.8924748E0,-2.9150847E-1,-1.0427853E0,-4.8326354E0,2.708334E-1,7.1696484E-1,4.9936414E-1,-3.440814E-2,3.9059797E-1,-1.3740349E0,6.558086E-1,1.210429E0,4.2894238E-1,-5.9219327E-2,4.21016E-1,-5.179891E-1,-2.4022336E0,1.4309238E0,-7.9082125E-1,-1.3584675E-2,-3.7325777E-2,-3.2206337E0,-1.709601E-1,4.0912926E-1,4.0463656E-1,-1.1535169E0,4.9428076E-1,1.3250015E0,-3.2558048E-3,2.3060286E0,9.0281266E-1,-6.613084E-1,-8.436627E-1,6.5489024E-1,-2.6656978E0,-4.2477922E0,2.5211802E0,9.836375E-1,8.828137E-2,9.5392394E-1,-1.5502774E-2,-3.753824E0,1.5178665E0,-9.848852E-2],"categories":[],"categories_nodes":[],"categories_segments":[],"categories_sizes":[],"default_left":[0,0,0,0,0,0,0,0,0,0,0,0,0,0,0,0,0,0,0,0,0,0,0,0,0,0,0,0,0,0,0,0,0,0,0,0,0,0,0,0,0,0,0,0,0,0,0,0,0,0,0,0,0,0,0,0,0,0,0,0,0,0,0,0,0,0,0,0,0,0,0,0,0,0,0,0,0,0,0,0,0,0,0,0,0,0,0,0,0,0,0,0,0,0,0,0,0,0,0,0,0,0,0,0,0,0,0,0,0,0,0,0,0,0,0,0,0,0,0],"id":8,"left_children":[1,3,5,7,9,11,13,15,17,19,21,23,25,27,29,31,33,35,37,39,41,43,45,47,49,51,53,55,57,59,61,63,65,67,69,71,73,75,77,79,81,-1,-1,83,-1,85,87,89,-1,91,93,95,97,99,101,103,105,107,109,111,113,115,117,-1,-1,-1,-1,-1,-1,-1,-1,-1,-1,-1,-1,-1,-1,-1,-1,-1,-1,-1,-1,-1,-1,-1,-1,-1,-1,-1,-1,-1,-1,-1,-1,-1,-1,-1,-1,-1,-1,-1,-1,-1,-1,-1,-1,-1,-1,-1,-1,-1,-1,-1,-1,-1,-1,-1,-1],"loss_changes":[8.295518E2,3.839754E2,1.2787483E3,4.0676593E2,1.09945496E2,1.8153842E3,1.0357896E3,3.716405E2,7.63488E2,2.4685794E2,1.6052759E2,1.2805427E3,7.281673E2,3.3068035E3,1.8822783E3,2.5283298E2,5.923581E2,1.9835962E2,4.4291992E2,1.688675E2,1.1869537E1,1.2397562E2,1.6738544E2,1.6322566E3,7.5802637E2,3.9698593E2,4.0279257E2,9.823154E2,1.00945435E3,8.0426904E2,8.1691364E2,2.2469061E2,1.787208E2,6.3413017E1,5.121082E2,3.429947E2,4.0255226E1,4.5014008E2,6.008223E2,1.5144702E2,1.702991E2,0E0,0E0,8.540636E1,0E0,5.892749E1,8.287071E1,8.664583E2,0E0,1.5892213E3,5.595879E2,6.60134E2,2.0319702E2,4.2263025E2,2.0622147E1,7.989022E2,1.1542361E3,8.033528E1,1.383208E2,2.5635413E2,6.274033E2,2.1587043E3,1.8867378E3,0E0,0E0,0E0,0E0,0E0,0E0,0E0,0E0,0E0,0E0,0E0,0E0,0E0,0E0,0E0,0E0,0E0,0E0,0E0,0E0,0E0,0E0,0E0,0E0,0E0,0E0,0E0,0E0,0E0,0E0,0E0,0E0,0E0,0E0,0E0,0E0,0E0,0E0,0E0,0E0,0E0,0E0,0E0,0E0,0E0,0E0,0E0,0E0,0E0,0E0,0E0,0E0,0E0,0E0,0E0,0E0],"parents":[2147483647,0,0,1,1,2,2,3,3,4,4,5,5,6,6,7,7,8,8,9,9,10,10,11,11,12,12,13,13,14,14,15,15,16,16,17,17,18,18,19,19,20,20,21,21,22,22,23,23,24,24,25,25,26,26,27,27,28,28,29,29,30,30,31,31,32,32,33,33,34,34,35,35,36,36,37,37,38,38,39,39,40,40,43,43,45,45,46,46,47,47,49,49,50,50,51,51,52,52,53,53,54,54,55,55,56,56,57,57,58,58,59,59,60,60,61,61,62,62],"right_children":[2,4,6,8,10,12,14,16,18,20,22,24,26,28,30,32,34,36,38,40,42,44,46,48,50,52,54,56,58,60,62,64,66,68,70,72,74,76,78,80,82,-1,-1,84,-1,86,88,90,-1,92,94,96,98,100,102,104,106,108,110,112,114,116,118,-1,-1,-1,-1,-1,-1,-1,-1,-1,-1,-1,-1,-1,-1,-1,-1,-1,-1,-1,-1,-1,-1,-1,-1,-1,-1,-1,-1,-1,-1,-1,-1,-1,-1,-1,-1,-1,-1,-1,-1,-1,-1,-1,-1,-1,-1,-1,-1,-1,-1,-1,-1,-1,-1,-1,-1],"split_conditions":[7E0,6.2188835E0,3E0,5E0,1.35395E1,1.7E1,2.7352227E4,2.502971E1,3.0772012E4,5.38142E4,3.5175562E4,8E0,1.9999993E-1,2.7256166E4,2.8771041E4,9.639501E0,3E0,1.3E1,1.1E1,9.3264065E0,1.10895E1,3.3077816E4,1.3258688E1,4.9050547E4,2.705446E4,1E0,1.43E1,1.4264361E1,4.1895E0,2.759468E4,6.8999996E0,1.1E1,3E0,9.4E0,2.08955E0,3.7999995E0,1.9395E0,2.8895E0,7.5895004E0,4.381862E4,3.3997562E4,-8.7645084E-1,-2.0819664E0,3.925486E1,-1.5243276E0,6E0,6E0,3.4939934E4,4.0053606E0,8.3895E0,2.0000002E-1,2.948101E1,2E0,2.9E0,1.15395E1,9.2395E0,2.7007553E4,1.9E1,2.7309889E4,1.7E1,2.7839445E4,6.7E0,9.6E0,1.0497012E-1,4.5194402E-1,-4.3914583E-1,-3.0384262E0,6.399756E-1,-5.287231E-1,-2.0447571E0,-2.1207103E-1,1.3350189E-1,1.3640358E0,5.2395176E-2,-1.0339608E0,-1.8924748E0,-2.9150847E-1,-1.0427853E0,-4.8326354E0,2.708334E-1,7.1696484E-1,4.9936414E-1,-3.440814E-2,3.9059797E-1,-1.3740349E0,6.558086E-1,1.210429E0,4.2894238E-1,-5.9219327E-2,4.21016E-1,-5.179891E-1,-2.4022336E0,1.4309238E0,-7.9082125E-1,-1.3584675E-2,-3.7325777E-2,-3.2206337E0,-1.709601E-1,4.0912926E-1,4.0463656E-1,-1.1535169E0,4.9428076E-1,1.3250015E0,-3.2558048E-3,2.3060286E0,9.0281266E-1,-6.613084E-1,-8.436627E-1,6.5489024E-1,-2.6656978E0,-4.2477922E0,2.5211802E0,9.836375E-1,8.828137E-2,9.5392394E-1,-1.5502774E-2,-3.753824E0,1.5178665E0,-9.848852E-2],"split_indices":[9,1,8,8,0,9,5,4,5,5,5,7,2,5,5,0,7,6,7,1,0,5,1,5,5,8,6,4,0,5,6,7,8,6,1,6,0,0,0,5,5,0,0,4,0,8,8,5,0,0,2,4,7,6,0,0,5,9,5,9,5,6,6,0,0,0,0,0,0,0,0,0,0,0,0,0,0,0,0,0,0,0,0,0,0,0,0,0,0,0,0,0,0,0,0,0,0,0,0,0,0,0,0,0,0,0,0,0,0,0,0,0,0,0,0,0,0,0,0],"split_type":[0,0,0,0,0,0,0,0,0,0,0,0,0,0,0,0,0,0,0,0,0,0,0,0,0,0,0,0,0,0,0,0,0,0,0,0,0,0,0,0,0,0,0,0,0,0,0,0,0,0,0,0,0,0,0,0,0,0,0,0,0,0,0,0,0,0,0,0,0,0,0,0,0,0,0,0,0,0,0,0,0,0,0,0,0,0,0,0,0,0,0,0,0,0,0,0,0,0,0,0,0,0,0,0,0,0,0,0,0,0,0,0,0,0,0,0,0,0,0],"sum_hessian":[7.359E3,2.173E3,5.186E3,1.127E3,1.046E3,2.211E3,2.975E3,8.01E2,3.26E2,7.4E2,3.06E2,1.312E3,8.99E2,3.41E2,2.634E3,7.09E2,9.2E1,1.51E2,1.75E2,7.33E2,7E0,2E1,2.86E2,3.62E2,9.5E2,7.87E2,1.12E2,2.93E2,4.8E1,3.54E2,2.28E3,6.93E2,1.6E1,3.7E1,5.5E1,1.36E2,1.5E1,1.52E2,2.3E1,4.09E2,3.24E2,5E0,2E0,1.5E1,5E0,9.4E1,1.92E2,3.54E2,8E0,5E1,9E2,2.63E2,5.24E2,9.7E1,1.5E1,5.3E1,2.4E2,1.1E1,3.7E1,4.5E1,3.09E2,2.004E3,2.76E2,4.07E2,2.86E2,1.4E1,2E0,3.3E1,4E0,2.4E1,3.1E1,1.12E2,2.4E1,4E0,1.1E1,1.7E1,1.35E2,1.9E1,4E0,3.22E2,8.7E1,6.7E1,2.57E2,1.3E1,2E0,6.8E1,2.6E1,1.53E2,3.9E1,1.63E2,1.91E2,1.2E1,3.8E1,8.07E2,9.3E1,2.58E2,5E0,6.1E1,4.63E2,1.9E1,7.8E1,1.1E1,4E0,2.8E1,2.5E1,5.4E1,1.86E2,6E0,5E0,2.1E1,1.6E1,2.7E1,1.8E1,1.3E2,1.79E2,1.991E3,1.3E1,1.03E2,1.73E2],"tree_param":{"num_deleted":"0","num_feature":"10","num_nodes":"119","size_leaf_vector":"1"}},{"base_weights":[-6.4018564E-3,3.11422E-1,-2.3608443E-1,3.434815E-1,-2.5783803E0,-8.0512863E-1,1.9996683E-1,3.9629912E-1,-9.516517E-1,-8.431503E-1,-4.7201285E0,-1.2695574E0,3.3326867E-1,2.2179214E-2,1.1338688E0,-1.8370697E-1,5.1342016E-1,-2.2127995E0,-3.6430827E-1,-1.332142E0,1.0157362E0,-5.35679E0,-1.6301112E0,-1.5522714E0,2.1970333E-1,1.1585282E0,-4.7804594E-1,-5.8984375E-1,3.4658074E-1,1.5685523E0,-3.0203958E0,-9.729576E-1,7.797903E-1,2.7216003E0,4.3072352E-1,-1.7340808E0,1.0119697E0,-6.310446E-1,2.4737716E0,-3.944029E-1,-5.604739E0,-1.3323657E-1,-9.181103E-1,7.7839E-1,-1.7844903E0,7.9506934E-1,-3.4186306E0,1.5229226E0,-6.711764E0,9.0890855E-1,-1.9344038E0,-1.1185566E0,2.50898E-1,7.6380765E-1,-2.0935458E-1,3.072753E0,1.1761559E0,-1.4208748E0,-2.9017508E0,-4.5239456E-2,-2.1403325E0,-2.0958422E-2,6.8104964E-1,1.2110138E0,6.121808E-1,1.0510393E-1,4.236738E-1,-2.2377826E-1,-1.3155913E0,6.2223506E-1,-4.036708E-1,9.4482046E-1,-5.4103434E-1,-1.8983357E0,-8.2723844E-1,-1.0139323E-1,4.143677E-2,2.2157907E0,-2.528122E-1,-3.4512067E-1,-7.2152406E-1,-3.3880812E-1,7.427225E-1,1.3994104E0,-1.2570488E0,5.166382E-1,-2.6464734E0,-2.2861617E0,-8.9672416E-1,1.1246304E-1,1.4252203E0,1.9836593E-1,-9.675188E-1,-6.111012E-1,3.36161E-2,-6.500943E-1,6.923002E-1,6.01073E-1,1.20141916E-1,-5.0386804E-1,1.3499293E-1,1.9057838E0,6.5146047E-1,4.5685044E-1,2.8185515E-2,-1.5627896E0,-2.9659213E-2],"categories":[],"categories_nodes":[],"categories_segments":[],"categories_sizes":[],"default_left":[0,0,0,0,0,0,0,0,0,0,0,0,0,0,0,0,0,0,0,0,0,0,0,0,0,0,0,0,0,0,0,0,0,0,0,0,0,0,0,0,0,0,0,0,0,0,0,0,0,0,0,0,0,0,0,0,0,0,0,0,0,0,0,0,0,0,0,0,0,0,0,0,0,0,0,0,0,0,0,0,0,0,0,0,0,0,0,0,0,0,0,0,0,0,0,0,0,0,0,0,0,0,0,0,0,0,0],"id":9,"left_children":[1,3,5,7,9,11,13,15,17,19,21,23,25,27,29,31,33,-1,35,-1,37,39,41,43,45,47,49,51,53,55,57,59,61,63,65,67,69,-1,71,-1,73,75,-1,77,79,81,83,85,87,89,91,93,95,97,99,101,103,105,-1,-1,-1,-1,-1,-1,-1,-1,-1,-1,-1,-1,-1,-1,-1,-1,-1,-1,-1,-1,-1,-1,-1,-1,-1,-1,-1,-1,-1,-1,-1,-1,-1,-1,-1,-1,-1,-1,-1,-1,-1,-1,-1,-1,-1,-1,-1,-1,-1],"loss_changes":[5.373432E2,2.869756E2,1.060431E3,2.0935693E2,1.2237868E2,9.80641E2,4.017824E2,1.9953952E2,4.5010867E2,1.3825066E2,2.0777283E1,5.54844E2,3.6076913E2,4.0403723E2,7.035785E2,3.7641644E2,4.4494177E2,0E0,2.1101067E2,0E0,6.887457E1,4.6584167E0,8.155904E0,6.005239E2,4.444199E2,7.7594836E2,5.511715E2,3.1366086E2,3.0865497E2,2.0356122E2,3.799434E2,1.3768003E3,2.8254352E2,7.057446E1,1.8537463E2,1.4343854E2,1.4301782E2,0E0,3.457794E1,0E0,5.197235E0,2.1335721E-1,0E0,1.0880887E3,3.9349634E2,5.946793E2,2.0040576E2,5.427241E2,1.7818542E1,2.85451E2,4.476911E2,4.8962683E2,1.3626348E3,3.4154044E2,5.5425574E2,1.9902765E2,1.0490662E2,1.5474341E2,0E0,0E0,0E0,0E0,0E0,0E0,0E0,0E0,0E0,0E0,0E0,0E0,0E0,0E0,0E0,0E0,0E0,0E0,0E0,0E0,0E0,0E0,0E0,0E0,0E0,0E0,0E0,0E0,0E0,0E0,0E0,0E0,0E0,0E0,0E0,0E0,0E0,0E0,0E0,0E0,0E0,0E0,0E0,0E0,0E0,0E0,0E0,0E0,0E0],"parents":[2147483647,0,0,1,1,2,2,3,3,4,4,5,5,6,6,7,7,8,8,9,9,10,10,11,11,12,12,13,13,14,14,15,15,16,16,18,18,20,20,21,21,22,22,23,23,24,24,25,25,26,26,27,27,28,28,29,29,30,30,31,31,32,32,33,33,34,34,35,35,36,36,38,38,40,40,41,41,43,43,44,44,45,45,46,46,47,47,48,48,49,49,50,50,51,51,52,52,53,53,54,54,55,55,56,56,57,57],"right_children":[2,4,6,8,10,12,14,16,18,20,22,24,26,28,30,32,34,-1,36,-1,38,40,42,44,46,48,50,52,54,56,58,60,62,64,66,68,70,-1,72,-1,74,76,-1,78,80,82,84,86,88,90,92,94,96,98,100,102,104,106,-1,-1,-1,-1,-1,-1,-1,-1,-1,-1,-1,-1,-1,-1,-1,-1,-1,-1,-1,-1,-1,-1,-1,-1,-1,-1,-1,-1,-1,-1,-1,-1,-1,-1,-1,-1,-1,-1,-1,-1,-1,-1,-1,-1,-1,-1,-1,-1,-1],"split_conditions":[1E1,5.4268824E4,1.6E1,1.43E1,6E0,5E0,1.50395E1,2.7892402E4,1.4599998E1,6.6087217E0,1.2599998E1,2.4627789E1,6E0,1.9E1,5.3584137E4,4E0,2.831882E4,-2.2127995E0,1.8500002E1,-1.332142E0,1.04895E1,1.10895E1,1.6439499E1,2E0,4.457553E4,1.3E1,1E1,3.541139E4,4E0,1.7E1,6E0,2.7552121E4,2.7352227E4,1E0,8.200001E0,8E0,1E1,-6.310446E-1,1.62895E1,-3.944029E-1,9E0,1.37395E1,-9.181103E-1,2.7552121E4,1.4336861E1,3.1580924E4,2.502971E1,4.23792E1,3.294049E1,1.92395E1,2E-1,4E0,8E0,5.7395E0,7.0395E0,1.3943268E1,2.9999998E0,1E0,-2.9017508E0,-4.5239456E-2,-2.1403325E0,-2.0958422E-2,6.8104964E-1,1.2110138E0,6.121808E-1,1.0510393E-1,4.236738E-1,-2.2377826E-1,-1.3155913E0,6.2223506E-1,-4.036708E-1,9.4482046E-1,-5.4103434E-1,-1.8983357E0,-8.2723844E-1,-1.0139323E-1,4.143677E-2,2.2157907E0,-2.528122E-1,-3.4512067E-1,-7.2152406E-1,-3.3880812E-1,7.427225E-1,1.3994104E0,-1.2570488E0,5.166382E-1,-2.6464734E0,-2.2861617E0,-8.9672416E-1,1.1246304E-1,1.4252203E0,1.9836593E-1,-9.675188E-1,-6.111012E-1,3.36161E-2,-6.500943E-1,6.923002E-1,6.01073E-1,1.20141916E-1,-5.0386804E-1,1.3499293E-1,1.9057838E0,6.5146047E-1,4.5685044E-1,2.8185515E-2,-1.5627896E0,-2.9659213E-2],"split_indices":[9,5,9,6,9,8,0,5,6,4,4,4,8,9,5,8,5,0,6,0,0,0,0,7,5,6,7,5,8,9,8,5,5,8,6,9,7,0,0,0,9,0,0,5,4,5,4,4,4,0,6,8,7,0,0,1,6,8,0,0,0,0,0,0,0,0,0,0,0,0,0,0,0,0,0,0,0,0,0,0,0,0,0,0,0,0,0,0,0,0,0,0,0,0,0,0,0,0,0,0,0,0,0,0,0,0,0],"split_type":[0,0,0,0,0,0,0,0,0,0,0,0,0,0,0,0,0,0,0,0,0,0,0,0,0,0,0,0,0,0,0,0,0,0,0,0,0,0,0,0,0,0,0,0,0,0,0,0,0,0,0,0,0,0,0,0,0,0,0,0,0,0,0,0,0,0,0,0,0,0,0,0,0,0,0,0,0,0,0,0,0,0,0,0,0,0,0,0,0,0,0,0,0,0,0,0,0,0,0,0,0,0,0,0,0,0,0],"sum_hessian":[7.359E3,3.087E3,4.272E3,3.054E3,3.3E1,1.853E3,2.419E3,2.935E3,1.19E2,1.9E1,1.4E1,1.316E3,5.37E2,2.033E3,3.86E2,4.93E2,2.442E3,9E0,1.1E2,6E0,1.3E1,1.1E1,3E0,1.106E3,2.1E2,2.66E2,2.71E2,7.04E2,1.329E3,3.5E2,3.6E1,2.71E2,2.22E2,8.7E1,2.355E3,5.5E1,5.5E1,4E0,9E0,1E0,1E1,2E0,1E0,1E2,1.006E3,1.82E2,2.8E1,2.55E2,1.1E1,1.39E2,1.32E2,4.32E2,2.72E2,7.59E2,5.7E2,7.1E1,2.79E2,3E1,6E0,2.4E2,3.1E1,1.42E2,8E1,2.8E1,5.9E1,2.178E3,1.77E2,4.1E1,1.4E1,3.8E1,1.7E1,8E0,1E0,7E0,3E0,1E0,1E0,1.9E1,8.1E1,4.99E2,5.07E2,8.5E1,9.7E1,2E0,2.6E1,2.51E2,4E0,8E0,3E0,1.23E2,1.6E1,4.4E1,8.8E1,2.47E2,1.85E2,1.25E2,1.47E2,1.71E2,5.88E2,1.76E2,3.94E2,1.4E1,5.7E1,2.11E2,6.8E1,7E0,2.3E1],"tree_param":{"num_deleted":"0","num_feature":"10","num_nodes":"107","size_leaf_vector":"1"}},{"base_weights":[-6.2610977E-3,2.2326136E0,-3.0238299E-2,2.3742191E-1,3.169262E0,-7.6413876E-1,4.5334466E-2,8.9760005E-1,-1.6827189E0,-1.1197008E-1,3.5905252E0,1.4868559E-1,-2.779943E0,-2.3881759E-1,2.6192385E-1,-1.6422123E-1,1.619166E0,-7.9228884E-1,1.4257812E-1,5.601142E-1,-6.188985E-1,6.988377E-1,4.4383717E0,1.3250294E0,-9.7926337E-1,-1.9548291E0,-3.0574389E0,4.9336365E-1,-4.880318E-1,2.7653563E0,1.5606241E-1,6.18412E-1,-9.140102E-1,9.7769547E-1,6.965058E-1,2.0986643E0,4.8747296E0,2.5919242E0,-7.111964E-1,1.1313999E0,-2.2989419E0,-6.322443E0,-1.3814821E0,-2.8707603E-1,8.890366E-1,-8.270503E-1,2.111341E-1,2.0778909E0,4.773072E0,4.7372925E-1,-5.740447E-1,7.303591E-2,3.1773722E-1,-3.7849203E-1,7.147637E-2,3.4507942E-1,-3.454342E-2,7.4037266E-1,3.7866212E-2,1.525269E0,5.559452E-1,3.765323E-1,2.327286E0,-2.9264927E0,2.0678164E-1,-1.7635906E0,7.0320404E-1,-2.2777245E0,-4.662136E-1,-2.5554829E0,8.541134E-1,-2.5496593E-1,-1.482961E0,-6.2408733E-1,5.155245E-2,8.060867E-2,4.8070112E-1,-3.2217252E-1,1.8820344E-1,1.6485311E-1,-3.8920414E-1,1.013232E0,-5.6051575E-3,1.5557564E0,7.7307147E-1,1.6321702E-1,-2.0474696E0,-4.1196927E-1,2.1932133E-1],"categories":[],"categories_nodes":[],"categories_segments":[],"categories_sizes":[],"default_left":[0,0,0,0,0,0,0,0,0,0,0,0,0,0,0,0,0,0,0,0,0,0,0,0,0,0,0,0,0,0,0,0,0,0,0,0,0,0,0,0,0,0,0,0,0,0,0,0,0,0,0,0,0,0,0,0,0,0,0,0,0,0,0,0,0,0,0,0,0,0,0,0,0,0,0,0,0,0,0,0,0,0,0,0,0,0,0,0,0],"id":10,"left_children":[1,3,5,7,9,11,13,15,17,19,21,23,25,27,29,31,33,-1,-1,-1,-1,-1,35,37,39,41,-1,43,45,47,49,51,53,55,-1,57,59,61,63,65,67,69,71,73,75,77,79,81,83,85,87,-1,-1,-1,-1,-1,-1,-1,-1,-1,-1,-1,-1,-1,-1,-1,-1,-1,-1,-1,-1,-1,-1,-1,-1,-1,-1,-1,-1,-1,-1,-1,-1,-1,-1,-1,-1,-1,-1],"loss_changes":[3.9516666E2,1.450134E2,4.0397083E2,3.4468918E1,7.366193E1,1.2516646E3,4.0650122E2,1.5589386E1,1.5730234E1,3.0879494E1,3.9912903E1,6.2359296E2,1.276531E3,5.215575E2,9.928523E2,5.846523E0,3.1378422E0,0E0,0E0,0E0,0E0,0E0,1.7335205E1,5.951707E2,6.710963E2,4.7206403E2,0E0,2.244432E2,5.0552304E2,1.998778E2,8.3452716E2,5.6839764E-1,2.3034E0,1.6411719E0,0E0,4.058384E0,4.5046387E0,9.7085675E2,1.1339558E3,8.0432275E2,5.717783E2,4.6721454E2,3.195695E2,2.0197723E2,2.128494E2,5.162393E2,3.564855E2,3.133922E2,2.1085083E1,1.2905408E3,1.1389501E3,0E0,0E0,0E0,0E0,0E0,0E0,0E0,0E0,0E0,0E0,0E0,0E0,0E0,0E0,0E0,0E0,0E0,0E0,0E0,0E0,0E0,0E0,0E0,0E0,0E0,0E0,0E0,0E0,0E0,0E0,0E0,0E0,0E0,0E0,0E0,0E0,0E0,0E0],"parents":[2147483647,0,0,1,1,2,2,3,3,4,4,5,5,6,6,7,7,8,8,9,9,10,10,11,11,12,12,13,13,14,14,15,15,16,16,22,22,23,23,24,24,25,25,27,27,28,28,29,29,30,30,31,31,32,32,33,33,35,35,36,36,37,37,38,38,39,39,40,40,41,41,42,42,43,43,44,44,45,45,46,46,47,47,48,48,49,49,50,50],"right_children":[2,4,6,8,10,12,14,16,18,20,22,24,26,28,30,32,34,-1,-1,-1,-1,-1,36,38,40,42,-1,44,46,48,50,52,54,56,-1,58,60,62,64,66,68,70,72,74,76,78,80,82,84,86,88,-1,-1,-1,-1,-1,-1,-1,-1,-1,-1,-1,-1,-1,-1,-1,-1,-1,-1,-1,-1,-1,-1,-1,-1,-1,-1,-1,-1,-1,-1,-1,-1,-1,-1,-1,-1,-1,-1],"split_conditions":[2.7007553E4,2.440046E1,2.7352227E4,2.5000002E0,7E-1,1.1E0,3E0,1.7E1,5.132654E0,1.7376637E0,9E0,1.9820442E1,2.7284621E4,6E0,2.7707723E4,4E0,2.1E1,-7.9228884E-1,1.4257812E-1,5.601142E-1,-6.188985E-1,6.988377E-1,2.5189713E1,2E-1,2.705446E4,1.2E0,-3.0574389E0,1E0,1.8E1,6.6E0,2.6999998E0,5.1394997E0,2.3269482E1,2.2493519E1,6.965058E-1,2.502971E1,3.294049E1,1.00895E1,3E-1,1E-1,7.3894997E0,1.8E1,2.7169225E4,5.7895E0,1.2000002E0,2.3904108E1,6.5E0,1.5E1,4.23792E1,3.294049E1,6.8999996E0,7.303591E-2,3.1773722E-1,-3.7849203E-1,7.147637E-2,3.4507942E-1,-3.454342E-2,7.4037266E-1,3.7866212E-2,1.525269E0,5.559452E-1,3.765323E-1,2.327286E0,-2.9264927E0,2.0678164E-1,-1.7635906E0,7.0320404E-1,-2.2777245E0,-4.662136E-1,-2.5554829E0,8.541134E-1,-2.5496593E-1,-1.482961E0,-6.2408733E-1,5.155245E-2,8.060867E-2,4.8070112E-1,-3.2217252E-1,1.8820344E-1,1.6485311E-1,-3.8920414E-1,1.013232E0,-5.6051575E-3,1.5557564E0,7.7307147E-1,1.6321702E-1,-2.0474696E0,-4.1196927E-1,2.1932133E-1],"split_indices":[5,4,5,6,6,6,8,9,1,1,9,4,5,9,5,9,9,0,0,0,0,0,4,6,5,6,0,8,9,6,6,0,4,4,0,4,4,0,6,6,0,9,5,0,6,4,6,9,4,4,6,0,0,0,0,0,0,0,0,0,0,0,0,0,0,0,0,0,0,0,0,0,0,0,0,0,0,0,0,0,0,0,0,0,0,0,0,0,0],"split_type":[0,0,0,0,0,0,0,0,0,0,0,0,0,0,0,0,0,0,0,0,0,0,0,0,0,0,0,0,0,0,0,0,0,0,0,0,0,0,0,0,0,0,0,0,0,0,0,0,0,0,0,0,0,0,0,0,0,0,0,0,0,0,0,0,0,0,0,0,0,0,0,0,0,0,0,0,0,0,0,0,0,0,0,0,0,0,0,0,0],"sum_hessian":[7.359E3,7.7E1,7.282E3,2.5E1,5.2E1,6.79E2,6.603E3,1.9E1,6E0,6E0,4.6E1,4.68E2,2.11E2,2.856E3,3.747E3,8E0,1.1E1,4E0,2E0,3E0,3E0,2E1,2.6E1,2.29E2,2.39E2,1.91E2,2E1,7.25E2,2.131E3,1.51E2,3.596E3,4E0,4E0,7E0,4E0,5E0,2.1E1,1.41E2,8.8E1,9.2E1,1.47E2,2.1E1,1.7E2,2.44E2,4.81E2,1.435E3,6.96E2,1.14E2,3.7E1,2.506E3,1.09E3,3E0,1E0,3E0,1E0,6E0,1E0,4E0,1E0,1.9E1,2E0,1.13E2,2.8E1,1.1E1,7.7E1,1.3E1,7.9E1,1.7E1,1.3E2,1.7E1,4E0,1.49E2,2.1E1,4.9E1,1.95E2,2.58E2,2.23E2,1.227E3,2.08E2,5.69E2,1.27E2,7E1,4.4E1,3E1,7E0,2.483E3,2.3E1,6.76E2,4.14E2],"tree_param":{"num_deleted":"0","num_feature":"10","num_nodes":"89","size_leaf_vector":"1"}},{"base_weights":[-5.12787E-3,7.0994445E-3,-4.4929075E0,-2.6241872E-2,1.9638789E0,-5.7024264E0,-2.1608758E-1,2.899487E-2,-1.4758468E0,2.9417865E0,-7.922874E-1,-3.732065E0,-2.0879955E0,-5.3254236E-3,4.3347282E0,-1.7811278E0,1.1717514E0,4.1627172E-1,4.177019E0,8.9156264E-1,-4.7542987E0,-1.2024299E0,-2.6997343E-1,1.7902242E-2,-2.0914664E0,5.7735044E-1,6.8221517E0,-1.5779396E0,-2.2276642E0,4.609536E-1,1.5963899E0,1.0745136E0,-3.5748723E-1,4.72897E0,-7.564572E-1,-8.634158E-3,1.9562165E0,-1.6499065E0,-1.1818275E0,-5.0675673E-3,8.969134E-1,-3.4895122E-1,-1.5054063E0,-4.5548123E-1,4.2188746E-1,1.6168035E0,3.4122298E0,-5.85467E-1,7.646091E-2,-8.7542415E-2,8.680001E-1,1.2251873E-1,6.6829914E-1,-2.644905E-1,1.7270203E-1,1.7121793E0,9.0063256E-1,-9.5725137E-1,5.6011134E-1,7.463467E-2,-5.032571E-1,1.8132544E-1,1.0372473E0,-1.04032524E-1,-4.277899E-1],"categories":[],"categories_nodes":[],"categories_segments":[],"categories_sizes":[],"default_left":[0,0,0,0,0,0,0,0,0,0,0,0,0,0,0,0,0,0,0,0,0,0,0,0,0,0,0,0,0,0,0,0,0,0,0,0,0,0,0,0,0,0,0,0,0,0,0,0,0,0,0,0,0,0,0,0,0,0,0,0,0,0,0,0,0],"id":11,"left_children":[1,3,5,7,9,11,-1,13,15,17,19,21,-1,23,25,27,29,31,33,35,37,-1,-1,39,41,43,45,47,-1,49,-1,51,53,55,57,59,61,-1,63,-1,-1,-1,-1,-1,-1,-1,-1,-1,-1,-1,-1,-1,-1,-1,-1,-1,-1,-1,-1,-1,-1,-1,-1,-1,-1],"loss_changes":[4.039008E2,4.7899014E2,8.7153595E1,5.780786E2,3.338497E2,1.1192505E1,0E0,1.0277915E3,2.1627637E2,2.821446E2,2.2439604E2,2.6472473E0,0E0,3.3443356E2,5.1010156E2,2.612403E2,8.013284E1,1.6173061E1,1.6968262E2,2.3018444E1,2.0129135E1,0E0,0E0,7.0586926E2,2.0063297E2,4.20895E1,1.5392908E2,1.5867883E2,0E0,4.6619354E1,0E0,1.2148506E1,7.844244E0,7.5782104E1,5.0663513E1,6.4317307E0,2.0233852E1,0E0,1.1711645E-1,0E0,0E0,0E0,0E0,0E0,0E0,0E0,0E0,0E0,0E0,0E0,0E0,0E0,0E0,0E0,0E0,0E0,0E0,0E0,0E0,0E0,0E0,0E0,0E0,0E0,0E0],"parents":[2147483647,0,0,1,1,2,2,3,3,4,4,5,5,7,7,8,8,9,9,10,10,11,11,13,13,14,14,15,15,16,16,17,17,18,18,19,19,20,20,23,23,24,24,25,25,26,26,27,27,29,29,31,31,32,32,33,33,34,34,35,35,36,36,38,38],"right_children":[2,4,6,8,10,12,-1,14,16,18,20,22,-1,24,26,28,30,32,34,36,38,-1,-1,40,42,44,46,48,-1,50,-1,52,54,56,58,60,62,-1,64,-1,-1,-1,-1,-1,-1,-1,-1,-1,-1,-1,-1,-1,-1,-1,-1,-1,-1,-1,-1,-1,-1,-1,-1,-1,-1],"split_conditions":[3.4099995E1,1.8500002E1,2.1E0,1.3599999E1,1E1,1.4E1,-2.1608758E-1,1.2800001E1,4.3059785E4,8E0,1.28395E1,1.4999999E0,-2.0879955E0,1.0500001E1,9E0,1.3682499E1,1.7189499E1,7.3894997E0,1.6852034E1,1.7E1,3.6405836E4,-1.2024299E0,-2.6997343E-1,9.500001E0,2.4162947E1,1.4529915E1,9.639501E0,3.0158459E1,-2.2276642E0,7.9999995E-1,1.5963899E0,5.6394997E0,1.41273E1,1.8E1,1.5E1,1.2051083E1,1.0889501E1,-1.6499065E0,1.32395E1,-5.0675673E-3,8.969134E-1,-3.4895122E-1,-1.5054063E0,-4.5548123E-1,4.2188746E-1,1.6168035E0,3.4122298E0,-5.85467E-1,7.646091E-2,-8.7542415E-2,8.680001E-1,1.2251873E-1,6.6829914E-1,-2.644905E-1,1.7270203E-1,1.7121793E0,9.0063256E-1,-9.5725137E-1,5.6011134E-1,7.463467E-2,-5.032571E-1,1.8132544E-1,1.0372473E0,-1.04032524E-1,-4.277899E-1],"split_indices":[6,6,2,6,7,9,0,6,5,9,0,2,0,6,9,1,0,0,1,9,5,0,0,6,4,4,0,4,0,2,0,0,1,9,9,1,0,0,0,0,0,0,0,0,0,0,0,0,0,0,0,0,0,0,0,0,0,0,0,0,0,0,0,0,0],"split_type":[0,0,0,0,0,0,0,0,0,0,0,0,0,0,0,0,0,0,0,0,0,0,0,0,0,0,0,0,0,0,0,0,0,0,0,0,0,0,0,0,0,0,0,0,0,0,0,0,0,0,0,0,0,0,0,0,0,0,0,0,0,0,0,0,0],"sum_hessian":[7.359E3,7.34E3,1.9E1,7.218E3,1.22E2,1.4E1,5E0,6.954E3,2.64E2,9E1,3.2E1,7E0,7E0,6.9E3,5.4E1,2.37E2,2.7E1,3E1,6E1,2.3E1,9E0,6E0,1E0,6.825E3,7.5E1,2.2E1,3.2E1,2.3E2,7E0,2.4E1,3E0,1.6E1,1.4E1,5.4E1,6E0,1.3E1,1E1,7E0,2E0,6.747E3,7.8E1,5.8E1,1.7E1,6E0,1.6E1,2.6E1,6E0,1.91E2,3.9E1,1.9E1,5E0,1.1E1,5E0,9E0,5E0,3.3E1,2.1E1,3E0,3E0,1.2E1,1E0,6E0,4E0,1E0,1E0],"tree_param":{"num_deleted":"0","num_feature":"10","num_nodes":"65","size_leaf_vector":"1"}},{"base_weights":[-3.3974107E-3,2.9613528E-2,-1.3354995E0,-6.821413E-2,9.760122E-1,-4.896463E-1,-2.4906094E0,3.6375668E-2,-1.2224424E0,3.0373473E0,2.6226574E-1,-1.5526776E0,6.0324425E-1,-1.9010918E0,-2.6859636E0,-6.6119626E-2,1.1458913E0,-3.9389484E0,-6.1136067E-2,1.3453388E0,4.4124136E0,-2.004837E-1,2.8129964E0,-2.693524E0,-1.6718903E-1,2.0731056E0,-8.345202E-1,-3.7673848E0,-1.4093516E0,8.212865E-2,-1.407863E0,3.1464906E0,5.209747E-1,-5.154024E0,6.172983E-1,-1.534279E0,7.757152E-1,-2.3594192E-1,1.8853651E0,4.7644286E0,-6.935501E-1,6.251355E-1,-1.1064571E0,3.4468403E0,5.4390556E-1,-4.6672087E0,-1.2280935E0,1.0795463E0,-3.5273006E0,-3.8920727E-1,3.3995776E0,-1.485078E0,3.2774563E0,-6.781001E-1,-1.3845395E0,-7.536472E-1,-3.0424912E0,-3.1695268E-3,4.7228315E-1,-2.4820055E-1,-8.462635E-1,5.066575E-1,1.2185494E0,4.288257E-2,7.4825865E-1,-1.1063921E0,-2.831078E0,-8.7443817E-1,1.3585857E0,-2.373435E-2,-9.796086E-1,5.775634E-2,5.951879E-1,4.3787125E-1,-3.0343553E-1,1.2065215E0,4.5613065E-1,7.018718E-1,1.7517372E0,-8.269135E-1,3.2895282E-2,-8.0681235E-2,9.700936E-1,-6.173503E-1,4.473083E-1,1.2385775E0,3.3790407E-1,-1.0709339E-1,6.0317296E-1,-1.5856153E0,3.1990758E-1,-2.2865568E-1,-1.3722792E0,-4.5679143E-1,4.9878624E-1,-1.987404E-1,-1.3622221E0,2.7583605E-1,-4.24467E-1,1.7128144E-1,1.1894801E0,-1.4826599E-1,-1.1462535E0,4.6114314E-1,1.2747592E0,-9.844747E-2,-1.4141259E0,-6.21952E-1,-1.9655436E0],"categories":[],"categories_nodes":[],"categories_segments":[],"categories_sizes":[],"default_left":[0,0,0,0,0,0,0,0,0,0,0,0,0,0,0,0,0,0,0,0,0,0,0,0,0,0,0,0,0,0,0,0,0,0,0,0,0,0,0,0,0,0,0,0,0,0,0,0,0,0,0,0,0,0,0,0,0,0,0,0,0,0,0,0,0,0,0,0,0,0,0,0,0,0,0,0,0,0,0,0,0,0,0,0,0,0,0,0,0,0,0,0,0,0,0,0,0,0,0,0,0,0,0,0,0,0,0,0,0],"id":12,"left_children":[1,3,5,7,9,11,13,15,17,19,21,23,25,27,-1,29,31,33,35,37,39,41,43,45,47,49,51,53,55,57,59,61,63,65,67,69,71,73,75,77,79,81,83,85,87,89,91,93,95,97,99,101,103,-1,-1,105,107,-1,-1,-1,-1,-1,-1,-1,-1,-1,-1,-1,-1,-1,-1,-1,-1,-1,-1,-1,-1,-1,-1,-1,-1,-1,-1,-1,-1,-1,-1,-1,-1,-1,-1,-1,-1,-1,-1,-1,-1,-1,-1,-1,-1,-1,-1,-1,-1,-1,-1,-1,-1],"loss_changes":[3.2368774E2,6.650972E2,1.7269598E2,7.860557E2,9.893686E2,1.2176144E2,2.687154E2,6.7909863E2,1.7064497E3,3.9656958E2,5.919189E2,8.332302E1,1.11622406E2,5.893161E1,0E0,1.0875629E3,6.297157E2,9.000432E2,4.6965475E2,6.790556E1,1.7405518E2,3.18587E2,1.0887048E2,7.81449E1,1.08537125E2,8.624405E1,7.709438E1,7.4546356E0,5.874588E1,6.81069E2,4.4390637E2,1.5324768E2,2.8757718E2,7.689026E2,4.9673004E2,3.4736508E2,1.7084583E2,2.9088905E1,3.988315E1,2.18271E2,1.1900298E1,5.2094977E2,5.047194E2,9.026965E1,2.4501125E1,4.8168274E1,2.457569E1,3.135965E1,1.7315254E1,1.4723632E1,2.4922455E1,5.3657574E1,2.3290634E-1,0E0,0E0,6.922235E1,4.0843323E1,0E0,0E0,0E0,0E0,0E0,0E0,0E0,0E0,0E0,0E0,0E0,0E0,0E0,0E0,0E0,0E0,0E0,0E0,0E0,0E0,0E0,0E0,0E0,0E0,0E0,0E0,0E0,0E0,0E0,0E0,0E0,0E0,0E0,0E0,0E0,0E0,0E0,0E0,0E0,0E0,0E0,0E0,0E0,0E0,0E0,0E0,0E0,0E0,0E0,0E0,0E0,0E0],"parents":[2147483647,0,0,1,1,2,2,3,3,4,4,5,5,6,6,7,7,8,8,9,9,10,10,11,11,12,12,13,13,15,15,16,16,17,17,18,18,19,19,20,20,21,21,22,22,23,23,24,24,25,25,26,26,27,27,28,28,29,29,30,30,31,31,32,32,33,33,34,34,35,35,36,36,37,37,38,38,39,39,40,40,41,41,42,42,43,43,44,44,45,45,46,46,47,47,48,48,49,49,50,50,51,51,52,52,55,55,56,56],"right_children":[2,4,6,8,10,12,14,16,18,20,22,24,26,28,-1,30,32,34,36,38,40,42,44,46,48,50,52,54,56,58,60,62,64,66,68,70,72,74,76,78,80,82,84,86,88,90,92,94,96,98,100,102,104,-1,-1,106,108,-1,-1,-1,-1,-1,-1,-1,-1,-1,-1,-1,-1,-1,-1,-1,-1,-1,-1,-1,-1,-1,-1,-1,-1,-1,-1,-1,-1,-1,-1,-1,-1,-1,-1,-1,-1,-1,-1,-1,-1,-1,-1,-1,-1,-1,-1,-1,-1,-1,-1,-1,-1],"split_conditions":[5.3119523E4,4.8554473E4,1.6410149E1,4.613773E4,4.92975E4,5E-1,5E0,4.3870156E4,8E0,4.8853336E4,5.2177695E4,1.4889501E1,1.52395E1,1E1,-2.6859636E0,4.155147E4,5.3804245E0,6.3999996E0,4.7012547E4,7.928177E0,2.948101E1,5.9999996E-1,2.1999998E0,9E0,1.7068707E1,6.792466E0,1.8439499E1,7E0,5E-1,4.031436E4,5E0,8E0,6E0,1.8E1,4.755783E4,1.0080613E1,1.6E1,9.2895E0,9.511088E0,8E0,8.9395E0,5E0,5.2E0,1.7E1,1.9999993E-1,1.47895E1,1.47895E1,5.3584137E4,1.62895E1,5.3584137E4,5.3584137E4,1.3E1,1.5977591E1,-6.781001E-1,-1.3845395E0,2.6574244E1,1.2245294E1,-3.1695268E-3,4.7228315E-1,-2.4820055E-1,-8.462635E-1,5.066575E-1,1.2185494E0,4.288257E-2,7.4825865E-1,-1.1063921E0,-2.831078E0,-8.7443817E-1,1.3585857E0,-2.373435E-2,-9.796086E-1,5.775634E-2,5.951879E-1,4.3787125E-1,-3.0343553E-1,1.2065215E0,4.5613065E-1,7.018718E-1,1.7517372E0,-8.269135E-1,3.2895282E-2,-8.0681235E-2,9.700936E-1,-6.173503E-1,4.473083E-1,1.2385775E0,3.3790407E-1,-1.0709339E-1,6.0317296E-1,-1.5856153E0,3.1990758E-1,-2.2865568E-1,-1.3722792E0,-4.5679143E-1,4.9878624E-1,-1.987404E-1,-1.3622221E0,2.7583605E-1,-4.24467E-1,1.7128144E-1,1.1894801E0,-1.4826599E-1,-1.1462535E0,4.6114314E-1,1.2747592E0,-9.844747E-2,-1.4141259E0,-6.21952E-1,-1.9655436E0],"split_indices":[5,5,1,5,5,6,8,5,7,5,5,0,0,9,0,5,1,6,5,4,4,6,6,4,4,4,0,9,6,5,8,9,8,9,5,1,9,0,4,9,0,8,6,9,2,0,0,5,0,5,5,9,1,0,0,4,4,0,0,0,0,0,0,0,0,0,0,0,0,0,0,0,0,0,0,0,0,0,0,0,0,0,0,0,0,0,0,0,0,0,0,0,0,0,0,0,0,0,0,0,0,0,0,0,0,0,0,0,0],"split_type":[0,0,0,0,0,0,0,0,0,0,0,0,0,0,0,0,0,0,0,0,0,0,0,0,0,0,0,0,0,0,0,0,0,0,0,0,0,0,0,0,0,0,0,0,0,0,0,0,0,0,0,0,0,0,0,0,0,0,0,0,0,0,0,0,0,0,0,0,0,0,0,0,0,0,0,0,0,0,0,0,0,0,0,0,0,0,0,0,0,0,0,0,0,0,0,0,0,0,0,0,0,0,0,0,0,0,0,0,0],"sum_hessian":[7.359E3,7.182E3,1.77E2,6.51E3,6.72E2,1.03E2,7.4E1,5.97E3,5.4E2,1.72E2,5E2,5.2E1,5.1E1,6.9E1,5E0,5.466E3,5.04E2,1.61E2,3.79E2,7.8E1,9.4E1,4.24E2,7.6E1,2.8E1,2.4E1,2.5E1,2.6E1,1.3E1,5.6E1,4.923E3,5.43E2,1.19E2,3.85E2,1.27E2,3.4E1,1.37E2,2.42E2,2E1,5.8E1,8.8E1,6E0,2.22E2,2.02E2,5.9E1,1.7E1,1.1E1,1.7E1,1.8E1,6E0,9E0,1.6E1,2.3E1,3E0,6E0,7E0,4.1E1,1.5E1,4.636E3,2.87E2,3.86E2,1.57E2,4.7E1,7.2E1,3.24E2,6.1E1,9.6E1,3.1E1,1.8E1,1.6E1,7.5E1,6.2E1,1.64E2,7.8E1,6E0,1.4E1,7E0,5.1E1,2.8E1,6E1,1E0,5E0,1.66E2,5.6E1,1.48E2,5.4E1,4.5E1,1.4E1,1.1E1,6E0,1E1,1E0,1.6E1,1E0,3E0,1.5E1,2E0,4E0,4E0,5E0,3E0,1.3E1,1.7E1,6E0,2E0,1E0,3.8E1,3E0,1.3E1,2E0],"tree_param":{"num_deleted":"0","num_feature":"10","num_nodes":"109","size_leaf_vector":"1"}},{"base_weights":[-3.3622175E-3,6.8721014E-1,-5.2609358E-2,8.0380726E-1,-2.241846E0,-4.3120824E-2,-3.4722044E0,5.7839084E-1,2.38711E0,1.6192749E0,-6.2002532E-2,-4.2261004E0,-1.5482254E-1,8.546375E-1,-1.1163535E0,4.8246053E-1,3.0112717E0,2.221934E-1,2.3271558E0,-4.865904E-1,2.0174619E-2,-2.7937229E0,-1.5390648E0,1.1224428E0,-1.2955863E0,-7.1385374E0,5.3791195E-1,2.2368631E0,-1.6019889E0,1.9560854E0,3.935533E0,7.0689666E-1,-1.2636583E0,-7.971682E-2,2.6498435E0,5.19213E-1,-1.0742987E0,-2.084557E-2,2.8203068E0,-3.1630802E0,-1.1237675E0,7.704872E-2,5.317798E-1,-1.4216241E0,2.619335E-1,-1.8960735E-1,-3.7875776E0,7.554315E-1,-2.538861E-1,3.881746E-1,1.046039E0,7.8701967E-1,1.1308437E-1,1.897833E0,1.0219848E0,4.3861773E-3,3.6746562E-1,1.7782116E-2,-6.812027E-1,4.3594152E-1,-4.7779286E-1,5.01523E-1,1.0096363E0,2.992731E-2,1.4099202E0,-5.1294446E-1,2.1288833E-1,-1.7033029E-1,3.341139E-2,3.1334433E-1,1.0742561E0,-1.0471082E0,-2.2900201E-1,-3.493767E-2,-4.7075775E-1],"categories":[],"categories_nodes":[],"categories_segments":[],"categories_sizes":[],"default_left":[0,0,0,0,0,0,0,0,0,0,0,0,0,0,0,0,0,0,0,0,0,0,0,0,0,0,0,0,0,0,0,0,0,0,0,0,0,0,0,0,0,0,0,0,0,0,0,0,0,0,0,0,0,0,0,0,0,0,0,0,0,0,0,0,0,0,0,0,0,0,0,0,0,0,0],"id":13,"left_children":[1,3,5,7,-1,9,11,13,15,17,19,21,-1,23,25,27,29,31,33,35,37,39,-1,41,43,45,47,49,-1,51,53,55,57,59,61,63,65,67,69,71,73,-1,-1,-1,-1,-1,-1,-1,-1,-1,-1,-1,-1,-1,-1,-1,-1,-1,-1,-1,-1,-1,-1,-1,-1,-1,-1,-1,-1,-1,-1,-1,-1,-1,-1],"loss_changes":[2.5034027E2,4.7221033E2,2.2279321E2,1.7136005E2,0E0,2.1520834E2,4.016266E1,1.9992523E2,6.987579E1,7.563338E1,2.3646896E2,5.0931396E0,0E0,2.1221219E2,6.0157733E2,1.7538277E2,3.6188812E1,2.0338598E1,3.982135E1,6.501977E2,6.5235974E2,1.3799133E0,0E0,1.8301248E2,3.1029163E2,4.5611304E2,1.3369812E2,1.0810463E1,0E0,2.3248047E1,7.530945E0,7.5125055E0,9.460099E0,1.8548004E1,2.5871063E1,7.114691E2,7.8801074E2,4.0486758E2,1.0700897E2,2.047985E0,1.1632946E0,0E0,0E0,0E0,0E0,0E0,0E0,0E0,0E0,0E0,0E0,0E0,0E0,0E0,0E0,0E0,0E0,0E0,0E0,0E0,0E0,0E0,0E0,0E0,0E0,0E0,0E0,0E0,0E0,0E0,0E0,0E0,0E0,0E0,0E0],"parents":[2147483647,0,0,1,1,2,2,3,3,5,5,6,6,7,7,8,8,9,9,10,10,11,11,13,13,14,14,15,15,16,16,17,17,18,18,19,19,20,20,21,21,23,23,24,24,25,25,26,26,27,27,29,29,30,30,31,31,32,32,33,33,34,34,35,35,36,36,37,37,38,38,39,39,40,40],"right_children":[2,4,6,8,-1,10,12,14,16,18,20,22,-1,24,26,28,30,32,34,36,38,40,-1,42,44,46,48,50,-1,52,54,56,58,60,62,64,66,68,70,72,74,-1,-1,-1,-1,-1,-1,-1,-1,-1,-1,-1,-1,-1,-1,-1,-1,-1,-1,-1,-1,-1,-1,-1,-1,-1,-1,-1,-1,-1,-1,-1,-1,-1,-1],"split_conditions":[-1.1491911E0,3.9566402E4,3.4099995E1,3.099414E4,-2.241846E0,2.7007553E4,2.1E0,2.9693727E4,1.2245294E1,2.4627789E1,2.8078604E4,1.4E1,-1.5482254E-1,2.2E0,2.9870023E4,1E1,8E0,2.5000002E0,7E-1,2E-1,1.2E1,1.34895E1,-1.5390648E0,3E0,3.7999995E0,8E0,-3.549202E0,8E0,-1.6019889E0,3.1395E0,1E0,1.7E1,2.2881958E1,1.7376637E0,9E0,8.069301E0,6.5000005E0,1E-1,2.817749E4,1.4999999E0,1.41895E1,7.704872E-2,5.317798E-1,-1.4216241E0,2.619335E-1,-1.8960735E-1,-3.7875776E0,7.554315E-1,-2.538861E-1,3.881746E-1,1.046039E0,7.8701967E-1,1.1308437E-1,1.897833E0,1.0219848E0,4.3861773E-3,3.6746562E-1,1.7782116E-2,-6.812027E-1,4.3594152E-1,-4.7779286E-1,5.01523E-1,1.0096363E0,2.992731E-2,1.4099202E0,-5.1294446E-1,2.1288833E-1,-1.7033029E-1,3.341139E-2,3.1334433E-1,1.0742561E0,-1.0471082E0,-2.2900201E-1,-3.493767E-2,-4.7075775E-1],"split_indices":[1,5,6,5,0,5,2,5,4,4,5,9,0,6,5,9,9,6,6,6,7,0,0,8,6,9,1,9,0,0,8,9,4,1,9,1,6,6,5,2,0,0,0,0,0,0,0,0,0,0,0,0,0,0,0,0,0,0,0,0,0,0,0,0,0,0,0,0,0,0,0,0,0,0,0],"split_type":[0,0,0,0,0,0,0,0,0,0,0,0,0,0,0,0,0,0,0,0,0,0,0,0,0,0,0,0,0,0,0,0,0,0,0,0,0,0,0,0,0,0,0,0,0,0,0,0,0,0,0,0,0,0,0,0,0,0,0,0,0,0,0,0,0,0,0,0,0,0,0,0,0,0,0],"sum_hessian":[7.359E3,4.89E2,6.87E3,4.83E2,6E0,6.852E3,1.8E1,4.24E2,5.9E1,7.6E1,6.776E3,1.4E1,4E0,3.65E2,5.9E1,1.5E1,4.4E1,2.6E1,5E1,1.098E3,5.678E3,7E0,7E0,3.25E2,4E1,1.2E1,4.7E1,1.2E1,3E0,2.2E1,2.2E1,2E1,6E0,6E0,4.4E1,4.05E2,6.93E2,5.597E3,8.1E1,5E0,2E0,1.4E2,1.85E2,1.5E1,2.5E1,6E0,6E0,1.9E1,2.8E1,8E0,4E0,1.5E1,7E0,2E0,2E1,9E0,1.1E1,3E0,3E0,3E0,3E0,2E1,2.4E1,3.69E2,3.6E1,5.11E2,1.82E2,1.089E3,4.508E3,2.5E1,5.6E1,4E0,1E0,1E0,1E0],"tree_param":{"num_deleted":"0","num_feature":"10","num_nodes":"75","size_leaf_vector":"1"}},{"base_weights":[-2.6969097E-3,-6.856138E-2,4.6073017E-1,1.95562E-1,-3.114275E-1,6.0777247E-1,-4.5757034E-1,3.0685672E-1,-2.8930435E-1,-6.17175E-1,-8.653594E-2,2.7871085E-2,8.653377E-1,1.8886008E0,-1.3356179E0,1.5812628E-1,1.358939E0,-3.3878667E0,3.0565253E-2,-1.3897295E0,-2.4313076E-1,3.5693288E-1,-4.6499303E-1,1.9930583E-1,-2.4619715E0,9.8926634E-1,-1.6560503E0,4.52997E0,-8.802505E-2,-5.0823245E0,-3.049456E-1,1.9397445E-1,-4.2022295E0,-2.448216E0,1.6049862E0,-2.9058206E0,-2.0819607E0,2.5327516E0,-1.8707946E-1,1.3888805E-1,-2.3502958E0,2.5979092E0,-3.922291E-1,-2.6665952E-3,1.9066513E0,-2.2455046E0,-2.2283348E-1,6.3113296E-1,-2.0424476E0,2.2126582E0,8.492046E-1,-5.7158475E0,8.2948035E-1,1.7432541E0,1.6154532E0,-7.2058105E-1,1.1842514E0,-4.544294E-1,-7.539312E0,1.5038878E0,-2.477217E0,1.5435387E-1,-2.644346E-2,-2.296008E0,3.205061E-1,5.8475107E-1,-5.994836E-1,-1.1663609E0,3.682216E-1,4.556589E-1,1.5755988E0,-1.0240871E0,-1.6451955E-2,-3.2664508E-1,1.4265842E0,-2.0095837E0,-4.8390764E-1,1.5101331E0,-6.4202154E-1,-3.3759046E-1,7.371043E-2,3.930994E-1,-1.4545079E-1,2.5263917E0,7.554006E-2,-9.376963E-1,1.1837602E0,-2.3213208E0,-4.2056672E-2,3.6694723E-1,-1.8219869E-1,-1.8595675E0,-1.766987E-1,1.4147006E-1,9.515255E-1,-1.5929481E-1,2.9683095E-1,7.0394063E-1,-2.4074204E0,4.170062E-1,-6.749144E-1,7.6840365E-1,1.0322342E-1,2.205074E-1,-6.312386E-1,-5.509549E-1,4.1603595E-1,-2.5916014E0,8.4794915E-1,2.1875064E-1,1.065141E0,-1.3265573E0,-1.5089668E-1],"categories":[],"categories_nodes":[],"categories_segments":[],"categories_sizes":[],"default_left":[0,0,0,0,0,0,0,0,0,0,0,0,0,0,0,0,0,0,0,0,0,0,0,0,0,0,0,0,0,0,0,0,0,0,0,0,0,0,0,0,0,0,0,0,0,0,0,0,0,0,0,0,0,0,0,0,0,0,0,0,0,0,0,0,0,0,0,0,0,0,0,0,0,0,0,0,0,0,0,0,0,0,0,0,0,0,0,0,0,0,0,0,0,0,0,0,0,0,0,0,0,0,0,0,0,0,0,0,0,0,0,0,0],"id":14,"left_children":[1,3,5,7,9,11,13,15,17,19,21,23,25,27,29,31,33,35,37,39,41,43,45,47,-1,49,51,53,55,57,59,61,63,-1,65,-1,67,69,71,73,75,77,79,81,83,85,87,89,91,93,95,97,99,101,-1,103,-1,105,107,109,111,-1,-1,-1,-1,-1,-1,-1,-1,-1,-1,-1,-1,-1,-1,-1,-1,-1,-1,-1,-1,-1,-1,-1,-1,-1,-1,-1,-1,-1,-1,-1,-1,-1,-1,-1,-1,-1,-1,-1,-1,-1,-1,-1,-1,-1,-1,-1,-1,-1,-1,-1,-1],"loss_changes":[2.2468367E2,4.134859E2,1.2396471E2,1.6672673E2,2.308428E2,1.179722E2,2.6414877E2,3.9285458E2,5.71989E2,4.1086572E2,3.2509244E2,3.46083E2,1.7256058E2,1.8313373E2,3.5758148E2,3.4501157E2,7.4154846E2,4.2397644E2,2.8583777E2,6.8163544E2,4.0766956E2,4.97097E2,4.5007007E2,2.3362102E2,0E0,8.756595E1,2.671007E2,2.6347198E1,5.6451168E1,2.2398749E2,2.9449194E2,1.9763507E2,3.355869E2,0E0,3.809115E2,0E0,2.7968695E2,1.0781741E2,2.0589775E2,1.0253398E3,9.0287195E2,5.647451E2,4.2724023E2,4.5962357E2,1.809051E3,6.935E2,5.70917E2,1.488492E2,2.3193665E2,8.7007355E1,9.149216E1,2.0497961E2,3.2469368E1,4.8419657E0,0E0,3.981068E1,0E0,2.2904617E1,1.7256177E2,6.241767E1,1.2830742E2,0E0,0E0,0E0,0E0,0E0,0E0,0E0,0E0,0E0,0E0,0E0,0E0,0E0,0E0,0E0,0E0,0E0,0E0,0E0,0E0,0E0,0E0,0E0,0E0,0E0,0E0,0E0,0E0,0E0,0E0,0E0,0E0,0E0,0E0,0E0,0E0,0E0,0E0,0E0,0E0,0E0,0E0,0E0,0E0,0E0,0E0,0E0,0E0,0E0,0E0,0E0,0E0],"parents":[2147483647,0,0,1,1,2,2,3,3,4,4,5,5,6,6,7,7,8,8,9,9,10,10,11,11,12,12,13,13,14,14,15,15,16,16,17,17,18,18,19,19,20,20,21,21,22,22,23,23,25,25,26,26,27,27,28,28,29,29,30,30,31,31,32,32,34,34,36,36,37,37,38,38,39,39,40,40,41,41,42,42,43,43,44,44,45,45,46,46,47,47,48,48,49,49,50,50,51,51,52,52,53,53,55,55,57,57,58,58,59,59,60,60],"right_children":[2,4,6,8,10,12,14,16,18,20,22,24,26,28,30,32,34,36,38,40,42,44,46,48,-1,50,52,54,56,58,60,62,64,-1,66,-1,68,70,72,74,76,78,80,82,84,86,88,90,92,94,96,98,100,102,-1,104,-1,106,108,110,112,-1,-1,-1,-1,-1,-1,-1,-1,-1,-1,-1,-1,-1,-1,-1,-1,-1,-1,-1,-1,-1,-1,-1,-1,-1,-1,-1,-1,-1,-1,-1,-1,-1,-1,-1,-1,-1,-1,-1,-1,-1,-1,-1,-1,-1,-1,-1,-1,-1,-1,-1,-1],"split_conditions":[2.1E1,1E1,6E0,5.3E0,3E0,6.9395E0,3E-1,2.7999997E0,6E0,3.1580924E4,1.0639501E1,4.4889717E0,2.9775719E1,7.3395004E0,3.5943856E0,2.6999998E0,3.319036E0,2.780524E4,6.2999997E0,2.7468447E4,2.7664814E0,6.055253E0,4E0,3.9316285E4,-2.4619715E0,4.546549E0,3.1999996E0,2.7616025E4,1.9999999E-1,5.2181816E-1,2.9999998E0,3.4233246E4,1.9453327E1,-2.448216E0,4.9543523E4,-2.9058206E0,1.4529915E1,8E0,6.3999996E0,6.2000003E0,2.8002969E4,3.4939934E4,1.5E1,1.3E1,4E0,2.9775719E1,5.2576904E0,4E0,4.012009E4,2E0,5.425E0,2E0,3.925486E1,4.9895E0,1.6154532E0,3.376391E4,1.1842514E0,1.0233123E1,3.9868434E4,1.8E0,6.3999996E0,1.5435387E-1,-2.644346E-2,-2.296008E0,3.205061E-1,5.8475107E-1,-5.994836E-1,-1.1663609E0,3.682216E-1,4.556589E-1,1.5755988E0,-1.0240871E0,-1.6451955E-2,-3.2664508E-1,1.4265842E0,-2.0095837E0,-4.8390764E-1,1.5101331E0,-6.4202154E-1,-3.3759046E-1,7.371043E-2,3.930994E-1,-1.4545079E-1,2.5263917E0,7.554006E-2,-9.376963E-1,1.1837602E0,-2.3213208E0,-4.2056672E-2,3.6694723E-1,-1.8219869E-1,-1.8595675E0,-1.766987E-1,1.4147006E-1,9.515255E-1,-1.5929481E-1,2.9683095E-1,7.0394063E-1,-2.4074204E0,4.170062E-1,-6.749144E-1,7.6840365E-1,1.0322342E-1,2.205074E-1,-6.312386E-1,-5.509549E-1,4.1603595E-1,-2.5916014E0,8.4794915E-1,2.1875064E-1,1.065141E0,-1.3265573E0,-1.5089668E-1],"split_indices":[9,9,8,6,8,0,6,6,6,5,0,1,4,0,1,6,4,5,6,5,1,1,7,5,0,1,6,5,6,1,6,5,4,0,5,0,4,9,6,6,5,5,9,9,8,4,1,8,5,8,1,7,4,0,0,5,0,4,5,6,6,0,0,0,0,0,0,0,0,0,0,0,0,0,0,0,0,0,0,0,0,0,0,0,0,0,0,0,0,0,0,0,0,0,0,0,0,0,0,0,0,0,0,0,0,0,0,0,0,0,0,0,0],"split_type":[0,0,0,0,0,0,0,0,0,0,0,0,0,0,0,0,0,0,0,0,0,0,0,0,0,0,0,0,0,0,0,0,0,0,0,0,0,0,0,0,0,0,0,0,0,0,0,0,0,0,0,0,0,0,0,0,0,0,0,0,0,0,0,0,0,0,0,0,0,0,0,0,0,0,0,0,0,0,0,0,0,0,0,0,0,0,0,0,0,0,0,0,0,0,0,0,0,0,0,0,0,0,0,0,0,0,0,0,0,0,0,0,0],"sum_hessian":[7.359E3,6.444E3,9.15E2,3.087E3,3.357E3,7.89E2,1.26E2,2.511E3,5.76E2,1.422E3,1.935E3,2.43E2,5.46E2,3.4E1,9.2E1,2.201E3,3.1E2,5.3E1,5.23E2,4.63E2,9.59E2,8.91E2,1.044E3,2.39E2,4E0,5.21E2,2.5E1,1.4E1,2E1,1.9E1,7.3E1,2.184E3,1.7E1,7E0,3.03E2,8E0,4.5E1,4.1E1,4.82E2,1.79E2,2.84E2,4.7E1,9.12E2,7.24E2,1.67E2,1.24E2,9.2E2,2.01E2,3.8E1,5.2E1,4.69E2,9E0,1.6E1,4E0,1E1,1.8E1,2E0,7E0,1.2E1,4E1,3.3E1,1.022E3,1.162E3,1E1,7E0,2.77E2,2.6E1,2.9E1,1.6E1,3.1E1,1E1,1.8E1,4.64E2,1.42E2,3.7E1,4E1,2.44E2,3.1E1,1.6E1,4.24E2,4.88E2,1.94E2,5.3E2,3.3E1,1.34E2,1.09E2,1.5E1,9E0,9.11E2,1.36E2,6.5E1,9E0,2.9E1,1.9E1,3.3E1,4.3E1,4.26E2,2E0,7E0,1.4E1,2E0,2E0,2E0,9E0,9E0,4E0,3E0,1.1E1,1E0,3E1,1E1,1.6E1,1.7E1],"tree_param":{"num_deleted":"0","num_feature":"10","num_nodes":"113","size_leaf_vector":"1"}},{"base_weights":[-3.373708E-3,1.726459E-2,-1.1080327E0,-5.9497163E-2,5.652099E-1,-2.5942E-1,-2.3761477E0,1.0297775E-2,-1.4077804E0,3.3886775E-1,2.306054E0,-2.817311E0,3.552916E-1,-5.620135E0,-1.5111474E0,3.635686E-2,-1.9780086E0,-3.8930702E0,-2.3436846E-1,-6.7032417E-3,1.7708855E0,1.4246018E0,3.9527028E0,-1.685898E0,-4.4220166E0,1.1988515E0,-8.6248285E-1,8.890916E-3,-6.188076E0,-2.2594419E0,4.4705036E-1,-3.4881156E-2,7.4880147E-1,-7.4902254E-1,-3.3196142E0,-2.5544455E0,-6.103311E0,1.803559E-2,-3.5673041E0,1.0648949E0,-6.096253E-1,2.5195494E-1,2.4215288E0,-2.1468933E0,2.1515024E0,5.0326476E0,-1.0860269E0,-1.9642392E0,-2.88908E-1,-2.035884E-1,-1.5104908E0,2.0357106E0,-9.234624E-1,-2.4448195E0,2.7496521E0,-2.0370576E0,-1.1535473E-1,-6.916008E-1,-2.5946515E0,-2.1439126E0,1.1481478E0,1.5408655E-2,-2.768966E-1,7.0742214E-1,9.8370254E-2,-4.9306235E-1,4.872707E-1,-7.235371E-1,-1.892701E0,-3.544029E-1,-1.7993566E0,-2.156044E0,-9.7413415E-1,1.0554392E-1,-8.9605904E-1,1.190134E0,-1.7344505E0,-1.2502372E0,4.2749694E-1,-9.508541E-2,-7.675458E-1,1.7164813E-1,-4.9785832E-1,9.534929E-1,1.8450217E-2,2.1151066E-1,-1.2854115E0,7.482744E-1,-5.735704E-1,8.6768344E-2,1.6119901E0,1.0795518E0,-7.399601E-1,-3.810741E-1,-7.5425035E-1,-1.8033601E-2,-1.1197501E-1,-4.381171E-1,7.485827E-1,-3.4852362E-1,-1.4746657E-1,5.5421567E-1,-9.932812E-1,2.2830206E-1,1.0851423E0,-3.7554693E-1,1.4179097E-1,-9.6096444E-1,-4.420773E-1,-8.3459955E-1,3.4840336E-1],"categories":[],"categories_nodes":[],"categories_segments":[],"categories_sizes":[],"default_left":[0,0,0,0,0,0,0,0,0,0,0,0,0,0,0,0,0,0,0,0,0,0,0,0,0,0,0,0,0,0,0,0,0,0,0,0,0,0,0,0,0,0,0,0,0,0,0,0,0,0,0,0,0,0,0,0,0,0,0,0,0,0,0,0,0,0,0,0,0,0,0,0,0,0,0,0,0,0,0,0,0,0,0,0,0,0,0,0,0,0,0,0,0,0,0,0,0,0,0,0,0,0,0,0,0,0,0,0,0,0,0],"id":15,"left_children":[1,3,5,7,9,11,13,15,17,19,21,23,25,27,29,31,33,35,37,39,41,43,45,47,49,51,53,-1,55,57,59,61,63,65,67,69,71,73,75,77,79,81,83,85,87,89,91,93,95,-1,-1,97,99,101,103,-1,-1,105,107,109,-1,-1,-1,-1,-1,-1,-1,-1,-1,-1,-1,-1,-1,-1,-1,-1,-1,-1,-1,-1,-1,-1,-1,-1,-1,-1,-1,-1,-1,-1,-1,-1,-1,-1,-1,-1,-1,-1,-1,-1,-1,-1,-1,-1,-1,-1,-1,-1,-1,-1,-1],"loss_changes":[1.6781447E2,3.0396817E2,1.446623E2,5.965356E2,3.4911407E2,1.2993494E2,1.4303381E2,3.1240335E2,9.0896344E2,3.8946967E2,1.4241602E2,2.1594307E1,6.986079E1,3.5479492E1,6.548366E1,3.0205804E2,1.2612106E2,2.8027783E2,1.7924985E2,4.109164E2,1.5059705E2,1.8115538E2,1.9591986E2,3.7097588E0,1.0350235E1,7.2923004E1,1.6675958E2,0E0,3.233322E1,1.50233E1,1.22055664E2,4.1449405E2,3.6566977E2,9.183228E1,8.5196075E1,2.9551642E2,9.116736E1,2.0064134E2,2.7317615E2,4.3740726E2,2.3133401E2,2.9716673E1,1.9090912E2,7.61835E1,8.415341E1,4.5305786E1,5.4145035E1,2.411995E-1,3.545457E-2,0E0,0E0,5.0237976E1,6.639309E-1,8.046767E1,1.2773468E1,0E0,0E0,5.157278E0,1.3017914E1,2.010316E1,0E0,0E0,0E0,0E0,0E0,0E0,0E0,0E0,0E0,0E0,0E0,0E0,0E0,0E0,0E0,0E0,0E0,0E0,0E0,0E0,0E0,0E0,0E0,0E0,0E0,0E0,0E0,0E0,0E0,0E0,0E0,0E0,0E0,0E0,0E0,0E0,0E0,0E0,0E0,0E0,0E0,0E0,0E0,0E0,0E0,0E0,0E0,0E0,0E0,0E0,0E0],"parents":[2147483647,0,0,1,1,2,2,3,3,4,4,5,5,6,6,7,7,8,8,9,9,10,10,11,11,12,12,13,13,14,14,15,15,16,16,17,17,18,18,19,19,20,20,21,21,22,22,23,23,24,24,25,25,26,26,28,28,29,29,30,30,31,31,32,32,33,33,34,34,35,35,36,36,37,37,38,38,39,39,40,40,41,41,42,42,43,43,44,44,45,45,46,46,47,47,48,48,51,51,52,52,53,53,54,54,57,57,58,58,59,59],"right_children":[2,4,6,8,10,12,14,16,18,20,22,24,26,28,30,32,34,36,38,40,42,44,46,48,50,52,54,-1,56,58,60,62,64,66,68,70,72,74,76,78,80,82,84,86,88,90,92,94,96,-1,-1,98,100,102,104,-1,-1,106,108,110,-1,-1,-1,-1,-1,-1,-1,-1,-1,-1,-1,-1,-1,-1,-1,-1,-1,-1,-1,-1,-1,-1,-1,-1,-1,-1,-1,-1,-1,-1,-1,-1,-1,-1,-1,-1,-1,-1,-1,-1,-1,-1,-1,-1,-1,-1,-1,-1,-1,-1,-1],"split_conditions":[5.3584137E4,4.7760008E4,1.6410149E1,4.6387246E4,1.92395E1,1.3639501E1,1.6852034E1,1.7072636E1,8E0,5.7E0,7E-1,1.32395E1,1.3E1,1.6839499E1,1.2991212E1,4.3870156E4,3E0,1.5517629E1,2.27895E1,4E-1,8E0,9.746631E0,2.1999998E0,1.27895E1,5.38142E4,2.1437386E1,8.000001E-1,8.890916E-3,2.8876396E1,1.7295986E1,1.5E1,4.1801043E4,4.6633997E0,1.6E1,2.2392464E1,1.8E1,2.0000002E-1,2.9999998E0,4.7261117E4,8E0,2.6260265E1,7E0,4.959448E4,5.2416787E0,2.4490587E1,1.9689499E1,1E-1,1.10895E1,1.29395E1,-2.035884E-1,-1.5104908E0,6.6087217E0,7E0,4.1046314E0,9.826088E0,-2.0370576E0,-1.1535473E-1,1.5E1,3E0,2.4064188E1,1.1481478E0,1.5408655E-2,-2.768966E-1,7.0742214E-1,9.8370254E-2,-4.9306235E-1,4.872707E-1,-7.235371E-1,-1.892701E0,-3.544029E-1,-1.7993566E0,-2.156044E0,-9.7413415E-1,1.0554392E-1,-8.9605904E-1,1.190134E0,-1.7344505E0,-1.2502372E0,4.2749694E-1,-9.508541E-2,-7.675458E-1,1.7164813E-1,-4.9785832E-1,9.534929E-1,1.8450217E-2,2.1151066E-1,-1.2854115E0,7.482744E-1,-5.735704E-1,8.6768344E-2,1.6119901E0,1.0795518E0,-7.399601E-1,-3.810741E-1,-7.5425035E-1,-1.8033601E-2,-1.1197501E-1,-4.381171E-1,7.485827E-1,-3.4852362E-1,-1.4746657E-1,5.5421567E-1,-9.932812E-1,2.2830206E-1,1.0851423E0,-3.7554693E-1,1.4179097E-1,-9.6096444E-1,-4.420773E-1,-8.3459955E-1,3.4840336E-1],"split_indices":[5,5,1,5,0,0,1,1,7,6,6,0,9,0,4,5,8,4,0,6,9,4,6,0,5,4,6,0,4,1,9,5,1,9,4,9,2,6,5,7,4,9,5,4,4,0,2,0,0,0,0,4,9,4,4,0,0,9,8,4,0,0,0,0,0,0,0,0,0,0,0,0,0,0,0,0,0,0,0,0,0,0,0,0,0,0,0,0,0,0,0,0,0,0,0,0,0,0,0,0,0,0,0,0,0,0,0,0,0,0,0],"split_type":[0,0,0,0,0,0,0,0,0,0,0,0,0,0,0,0,0,0,0,0,0,0,0,0,0,0,0,0,0,0,0,0,0,0,0,0,0,0,0,0,0,0,0,0,0,0,0,0,0,0,0,0,0,0,0,0,0,0,0,0,0,0,0,0,0,0,0,0,0,0,0,0,0,0,0,0,0,0,0,0,0,0,0,0,0,0,0,0,0,0,0,0,0,0,0,0,0,0,0,0,0,0,0,0,0,0,0,0,0,0,0],"sum_hessian":[7.359E3,7.225E3,1.34E2,6.338E3,8.87E2,8.1E1,5.3E1,6.027E3,3.11E2,7.86E2,1.01E2,1.5E1,6.6E1,1E1,4.3E1,5.95E3,7.7E1,9.9E1,2.12E2,6.34E2,1.52E2,6.7E1,3.4E1,1E1,5E0,3.9E1,2.7E1,1E0,9E0,3.1E1,1.2E1,5.41E3,5.4E2,4.1E1,3.6E1,6.3E1,3.6E1,1.98E2,1.4E1,2.28E2,4.06E2,4.6E1,1.06E2,1.1E1,5.6E1,2.8E1,6E0,8E0,2E0,1E0,4E0,2.8E1,1.1E1,1.9E1,8E0,8E0,1E0,6E0,2.5E1,7E0,5E0,4.932E3,4.78E2,1.11E2,4.29E2,3E1,1.1E1,2.9E1,7E0,4.6E1,1.7E1,2.5E1,1.1E1,1.79E2,1.9E1,3E0,1.1E1,1.4E1,2.14E2,3.54E2,5.2E1,4E1,6E0,8E1,2.6E1,5E0,6E0,5.2E1,4E0,2E0,2.6E1,1E0,5E0,5E0,3E0,1E0,1E0,3E0,2.5E1,6E0,5E0,3E0,1.6E1,3E0,5E0,4E0,2E0,1.5E1,1E1,6E0,1E0],"tree_param":{"num_deleted":"0","num_feature":"10","num_nodes":"111","size_leaf_vector":"1"}},{"base_weights":[-4.2642844E-3,2.3989528E-3,-2.4497924E0,-1.5620777E-2,1.0599765E0,-3.0755298E0,-1.4314485E-1,1.7590081E-2,-1.2926109E0,1.6543756E0,-6.112447E-1,-1.2885156E0,-2.036264E0,-3.1435546E-2,6.5043163E-1,-2.9434974E0,-4.6336952E-1,9.135129E-2,2.4215784E0,5.865399E-1,-3.4248033E0,-1.3015839E0,-7.531882E-1,1.7984241E-2,-2.3733346E0,-7.54466E-1,1.3634883E0,-4.6393843E0,-1.3569789E-1,-2.7911205E0,4.323728E-2,-6.6138387E-1,4.812911E-1,3.5364428E0,6.747162E-1,1.5853703E0,8.199972E-2,-1.1218307E0,-8.896666E-2,-4.5829034E-1,-2.5699712E-2,1.8570262E-3,1.0797544E0,-2.9748142E0,-3.6079153E-1,-6.3102216E-1,5.7297283E-1,9.660622E-1,7.023682E-2,-9.702181E-1,-1.6245866E0,4.8468634E-1,-6.064956E-1,1.7648102E-1,-1.552785E0,-4.1075014E-2,1.3473718E0,-7.4099846E-2,-3.327736E-1,4.606934E-1,4.286277E-2,8.9055765E-1,1.66389E0,9.5449644E-1,1.3709014E-2,1.8379642E-2,7.4627405E-1,8.0155924E-2,-4.321481E-1],"categories":[],"categories_nodes":[],"categories_segments":[],"categories_sizes":[],"default_left":[0,0,0,0,0,0,0,0,0,0,0,0,0,0,0,0,0,0,0,0,0,0,0,0,0,0,0,0,0,0,0,0,0,0,0,0,0,0,0,0,0,0,0,0,0,0,0,0,0,0,0,0,0,0,0,0,0,0,0,0,0,0,0,0,0,0,0,0,0],"id":16,"left_children":[1,3,5,7,9,11,-1,13,15,17,19,-1,21,23,25,27,29,31,33,35,37,39,-1,41,43,45,47,49,51,53,55,57,59,61,63,65,67,-1,-1,-1,-1,-1,-1,-1,-1,-1,-1,-1,-1,-1,-1,-1,-1,-1,-1,-1,-1,-1,-1,-1,-1,-1,-1,-1,-1,-1,-1,-1,-1],"loss_changes":[1.1993806E2,1.3991591E2,2.321965E1,3.0618008E2,1.23196045E2,1.0265244E1,0E0,2.1834657E2,2.4916006E2,1.0890204E2,1.1322E2,0E0,2.1725845E-1,7.560313E2,5.079251E2,2.8983478E2,1.4516899E2,9.417481E0,1.1641232E2,1.1964801E1,8.733536E0,1.5182877E0,0E0,2.7021127E2,1.1801549E3,6.1860596E2,7.038093E2,2.3921692E1,8.253599E1,1.8034885E2,8.2350105E1,1.7674713E0,7.2735877E0,2.5768677E1,3.9277435E1,1.0848097E1,5.1779532E0,0E0,0E0,0E0,0E0,0E0,0E0,0E0,0E0,0E0,0E0,0E0,0E0,0E0,0E0,0E0,0E0,0E0,0E0,0E0,0E0,0E0,0E0,0E0,0E0,0E0,0E0,0E0,0E0,0E0,0E0,0E0,0E0],"parents":[2147483647,0,0,1,1,2,2,3,3,4,4,5,5,7,7,8,8,9,9,10,10,12,12,13,13,14,14,15,15,16,16,17,17,18,18,19,19,20,20,21,21,23,23,24,24,25,25,26,26,27,27,28,28,29,29,30,30,31,31,32,32,33,33,34,34,35,35,36,36],"right_children":[2,4,6,8,10,12,-1,14,16,18,20,-1,22,24,26,28,30,32,34,36,38,40,-1,42,44,46,48,50,52,54,56,58,60,62,64,66,68,-1,-1,-1,-1,-1,-1,-1,-1,-1,-1,-1,-1,-1,-1,-1,-1,-1,-1,-1,-1,-1,-1,-1,-1,-1,-1,-1,-1,-1,-1,-1,-1],"split_conditions":[3.4099995E1,1.8500002E1,2.1E0,1.4299998E1,1E1,3.294049E1,-1.4314485E-1,8.3E0,1.1901798E1,8E0,1.28395E1,-1.2885156E0,1.41895E1,6.899999E0,2E0,1.6E1,1.43E1,8.891344E0,4.588735E4,3.6405836E4,2.2E0,1.34895E1,-7.531882E-1,6.7999997E0,3.1997498E4,1.11E1,9.400001E0,8E0,1.34895E1,1.1E1,1.4717251E1,5E0,1E0,1.26895E1,1.1E1,1.14395E1,1.2051083E1,-1.1218307E0,-8.896666E-2,-4.5829034E-1,-2.5699712E-2,1.8570262E-3,1.0797544E0,-2.9748142E0,-3.6079153E-1,-6.3102216E-1,5.7297283E-1,9.660622E-1,7.023682E-2,-9.702181E-1,-1.6245866E0,4.8468634E-1,-6.064956E-1,1.7648102E-1,-1.552785E0,-4.1075014E-2,1.3473718E0,-7.4099846E-2,-3.327736E-1,4.606934E-1,4.286277E-2,8.9055765E-1,1.66389E0,9.5449644E-1,1.3709014E-2,1.8379642E-2,7.4627405E-1,8.0155924E-2,-4.321481E-1],"split_indices":[6,6,2,6,7,4,0,6,4,9,0,0,0,6,8,9,6,4,5,5,2,0,0,6,5,6,6,9,0,9,1,9,8,0,9,0,1,0,0,0,0,0,0,0,0,0,0,0,0,0,0,0,0,0,0,0,0,0,0,0,0,0,0,0,0,0,0,0,0],"split_type":[0,0,0,0,0,0,0,0,0,0,0,0,0,0,0,0,0,0,0,0,0,0,0,0,0,0,0,0,0,0,0,0,0,0,0,0,0,0,0,0,0,0,0,0,0,0,0,0,0,0,0,0,0,0,0,0,0,0,0,0,0,0,0,0,0,0,0,0,0],"sum_hessian":[7.359E3,7.34E3,1.9E1,7.218E3,1.22E2,1.4E1,5E0,7.036E3,1.82E2,9E1,3.2E1,5E0,9E0,6.531E3,5.05E2,6E1,1.22E2,3E1,6E1,2.3E1,9E0,5E0,4E0,6.397E3,1.34E2,1.7E2,3.35E2,3.7E1,2.3E1,2.1E1,1.01E2,1E1,2E1,3.6E1,2.4E1,7E0,1.6E1,8E0,1E0,4E0,1E0,6.377E3,2E1,1.7E1,1.17E2,1.13E2,5.7E1,1.26E2,2.09E2,1.5E1,2.2E1,1.2E1,1.1E1,9E0,1.2E1,9.8E1,3E0,6E0,4E0,4E0,1.6E1,3E1,6E0,4E0,2E1,3E0,4E0,1.5E1,1E0],"tree_param":{"num_deleted":"0","num_feature":"10","num_nodes":"69","size_leaf_vector":"1"}},{"base_weights":[-3.5166955E-3,9.224951E-1,-2.0685932E-2,1.4260453E0,-9.4987786E-1,-4.1095276E0,-7.630547E-3,9.063057E-1,2.5996213E0,2.797197E-1,-2.9873755E0,-1.8633435E0,-3.0489476E0,-3.9100486E-1,4.3845277E-2,3.275289E-1,2.050758E0,2.8830297E0,-9.2790616E-1,-1.2395172E0,1.4973027E0,5.3460056E-1,-1.1488311E0,-2.6338277E0,1.4918079E0,-5.980531E-1,1.2673175E0,2.856935E-1,-8.2654394E-2,5.923078E-1,-1.1696963E0,-6.40271E-1,2.593824E0,7.037994E-1,3.742542E0,4.7388968E-1,-3.4997482E0,2.2832252E-1,7.786297E-1,2.7855808E-1,-3.7987806E-2,-1.5272897E0,-1.5884954E0,5.1599693E-1,1.2108937E-1,1.3545076E0,-8.2688665E-1,1.7182406E0,-1.7123246E0,1.836819E-1,6.194644E0,-2.2719257E0,2.3529524E-2,2.5060076E-1,-3.2582772E-1,-1.4029199E-1,-6.551731E-1,2.2633745E-1,-5.4647297E-1,8.8096124E-1,3.7428552E-1,1.3430342E-1,4.5133382E-1,9.468673E-1,1.9211444E0,-1.4084244E-2,3.031128E-1,-1.28702E0,-1.6931906E-1,-3.2504132E-1,-5.795825E-1,5.2671295E-1,-1.5044001E0,-2.024775E-1,-1.0824119E0,6.678375E-1,-1.7808688E-1,-5.847868E-3,3.4769207E-1,9.3811125E-1,4.2493434E0,-3.8988557E-1,-3.4958134E0,-1.6256234E-1,7.1738474E-2],"categories":[],"categories_nodes":[],"categories_segments":[],"categories_sizes":[],"default_left":[0,0,0,0,0,0,0,0,0,0,0,0,0,0,0,0,0,0,0,0,0,0,0,0,0,0,0,0,0,0,0,0,0,0,0,0,0,0,0,0,0,0,0,0,0,0,0,0,0,0,0,0,0,0,0,0,0,0,0,0,0,0,0,0,0,0,0,0,0,0,0,0,0,0,0,0,0,0,0,0,0,0,0,0,0],"id":17,"left_children":[1,3,5,7,9,11,13,15,17,19,21,23,-1,25,27,29,31,33,-1,35,37,39,-1,41,43,45,47,49,51,53,55,57,59,61,63,65,67,-1,-1,-1,-1,69,-1,-1,-1,71,73,75,-1,77,79,81,83,-1,-1,-1,-1,-1,-1,-1,-1,-1,-1,-1,-1,-1,-1,-1,-1,-1,-1,-1,-1,-1,-1,-1,-1,-1,-1,-1,-1,-1,-1,-1,-1],"loss_changes":[1.170351E2,1.2769429E2,3.8575598E2,6.2299057E1,7.3489395E1,2.9380664E2,1.4220428E2,4.9006992E1,6.0544235E1,3.700208E1,3.4670135E1,5.0460793E1,0E0,2.9363785E2,1.9438551E2,2.0910938E1,3.8195915E1,5.5431335E1,0E0,3.6512753E1,6.9178867E0,8.989993E-1,0E0,3.60831E1,2.9896736E-1,3.4024982E2,3.0860303E2,1.3141311E3,9.698991E2,1.8854776E1,4.675001E0,9.6123085E0,6.0249176E0,1.37712E0,1.4115875E1,1.7239667E0,6.8581467E0,0E0,0E0,0E0,0E0,6.1903E-2,0E0,0E0,0E0,2.1323048E2,2.8495233E2,1.0699582E2,0E0,4.2526257E2,8.602947E2,1.7452095E3,4.852931E2,0E0,0E0,0E0,0E0,0E0,0E0,0E0,0E0,0E0,0E0,0E0,0E0,0E0,0E0,0E0,0E0,0E0,0E0,0E0,0E0,0E0,0E0,0E0,0E0,0E0,0E0,0E0,0E0,0E0,0E0,0E0,0E0],"parents":[2147483647,0,0,1,1,2,2,3,3,4,4,5,5,6,6,7,7,8,8,9,9,10,10,11,11,13,13,14,14,15,15,16,16,17,17,19,19,20,20,21,21,23,23,24,24,25,25,26,26,27,27,28,28,29,29,30,30,31,31,32,32,33,33,34,34,35,35,36,36,41,41,45,45,46,46,47,47,49,49,50,50,51,51,52,52],"right_children":[2,4,6,8,10,12,14,16,18,20,22,24,-1,26,28,30,32,34,-1,36,38,40,-1,42,44,46,48,50,52,54,56,58,60,62,64,66,68,-1,-1,-1,-1,70,-1,-1,-1,72,74,76,-1,78,80,82,84,-1,-1,-1,-1,-1,-1,-1,-1,-1,-1,-1,-1,-1,-1,-1,-1,-1,-1,-1,-1,-1,-1,-1,-1,-1,-1,-1,-1,-1,-1,-1,-1],"split_conditions":[2.7015365E4,5.8085594E0,2.7020588E4,2.7011623E4,5E0,4.9895E0,2.7616025E4,2.8555965E1,1.0389501E1,1.13395E1,1E-1,2.1E1,-3.0489476E0,8.007173E0,3.4233246E4,2.7007553E4,2.0000002E0,-2.3259554E0,-9.2790616E-1,2.7005637E4,2.1E1,1.0139501E1,-1.1488311E0,4.1895E0,3.6895E0,4.2895E0,1.0425448E1,3.4003664E4,3.4949953E4,2.5000002E0,9.8395E0,1E-1,3.294049E1,4.2000002E-1,1.02895E1,6.265745E0,1.12395E1,2.2832252E-1,7.786297E-1,2.7855808E-1,-3.7987806E-2,-1.1491911E0,-1.5884954E0,5.1599693E-1,1.2108937E-1,1.5517629E1,1.11895E1,9.482529E0,-1.7123246E0,3.2635615E4,1.3450708E1,3.4939934E4,8E0,2.5060076E-1,-3.2582772E-1,-1.4029199E-1,-6.551731E-1,2.2633745E-1,-5.4647297E-1,8.8096124E-1,3.7428552E-1,1.3430342E-1,4.5133382E-1,9.468673E-1,1.9211444E0,-1.4084244E-2,3.031128E-1,-1.28702E0,-1.6931906E-1,-3.2504132E-1,-5.795825E-1,5.2671295E-1,-1.5044001E0,-2.024775E-1,-1.0824119E0,6.678375E-1,-1.7808688E-1,-5.847868E-3,3.4769207E-1,9.3811125E-1,4.2493434E0,-3.8988557E-1,-3.4958134E0,-1.6256234E-1,7.1738474E-2],"split_indices":[5,1,5,5,8,0,5,4,0,0,2,9,0,1,5,5,6,1,0,5,9,0,0,0,0,0,1,5,5,6,0,2,4,3,0,1,0,0,0,0,0,1,0,0,0,4,0,1,0,5,4,5,7,0,0,0,0,0,0,0,0,0,0,0,0,0,0,0,0,0,0,0,0,0,0,0,0,0,0,0,0,0,0,0,0],"split_type":[0,0,0,0,0,0,0,0,0,0,0,0,0,0,0,0,0,0,0,0,0,0,0,0,0,0,0,0,0,0,0,0,0,0,0,0,0,0,0,0,0,0,0,0,0,0,0,0,0,0,0,0,0,0,0,0,0,0,0,0,0,0,0,0,0,0,0,0,0,0,0,0,0,0,0,0,0,0,0,0,0,0,0,0,0],